{
  "type": "NeuralNetwork",
  "sizes": [
    20,
    10,
    10,
    1
  ],
  "layers": [
    {
      "weights": [],
      "biases": []
    },
    {
      "weights": [
        [
          0.10590864717960358,
          -0.17725640535354614,
          0.09525017440319061,
          0.9872573614120483,
          0.21990357339382172,
          -1.1762515306472778,
          -1.0343115329742432,
          0.7403145432472229,
          0.8847996592521667,
          -0.3181045651435852,
          -0.44364485144615173,
          -1.267277717590332,
          0.025800250470638275,
          0.24032028019428253,
          -0.34501489996910095,
          -0.16680917143821716,
          0.8602810502052307,
          0.07919740676879883,
          0.014350774697959423,
          -0.10139063745737076
        ],
        [
          0.0818878635764122,
          0.010958824306726456,
          0.20231162011623383,
          1.1842286586761475,
          0.20845875144004822,
          -1.5267030000686646,
          -1.1836271286010742,
          1.1762830018997192,
          1.2787669897079468,
          -0.6455130577087402,
          -0.4657227098941803,
          -1.9090523719787598,
          -0.020572440698742867,
          0.37708136439323425,
          -0.2590617537498474,
          -0.2376982867717743,
          0.9163628220558167,
          -0.10144827514886856,
          -0.264628142118454,
          -0.05184924975037575
        ],
        [
          -0.06599118560552597,
          -0.07699506729841232,
          -0.001020554220303893,
          0.14775672554969788,
          0.010620403103530407,
          -0.21550576388835907,
          -0.033752184361219406,
          0.20759642124176025,
          0.012753215618431568,
          -0.08686631172895432,
          0.11705328524112701,
          -0.3060762286186218,
          -0.14785268902778625,
          -0.024470286443829536,
          0.11916554719209671,
          -0.06347420066595078,
          0.16006620228290558,
          -0.14486132562160492,
          0.11737300455570221,
          0.1718752533197403
        ],
        [
          0.12821228802204132,
          0.25736677646636963,
          0.24491773545742035,
          -0.06987924128770828,
          -0.021214595064520836,
          0.24815693497657776,
          0.30953001976013184,
          -0.02881038747727871,
          0.260429322719574,
          -0.14455029368400574,
          0.09687823802232742,
          0.23664037883281708,
          0.2954099178314209,
          0.32361239194869995,
          0.15357068181037903,
          -0.04638384282588959,
          0.12297596037387848,
          0.1142500564455986,
          -0.05470072478055954,
          -0.10760227590799332
        ],
        [
          0.01950320601463318,
          -0.04129745066165924,
          -0.01482476107776165,
          0.21841755509376526,
          -0.019468696787953377,
          -0.6481329798698425,
          -0.3121115267276764,
          0.3339967131614685,
          0.3981133699417114,
          -0.3669968247413635,
          -0.23798617720603943,
          -0.8046384453773499,
          -0.3182366192340851,
          0.19788627326488495,
          -0.30190369486808777,
          -0.02160034142434597,
          0.5298545956611633,
          -0.1065758764743805,
          -0.23216022551059723,
          0.10060828179121017
        ],
        [
          0.062144387513399124,
          0.16217537224292755,
          0.23918434977531433,
          1.4387762546539307,
          0.16404388844966888,
          -1.7668226957321167,
          -1.301133155822754,
          1.2143616676330566,
          1.3033839464187622,
          -0.43984174728393555,
          -0.5864862203598022,
          -1.7502144575119019,
          -0.32678890228271484,
          0.5794912576675415,
          -0.22442573308944702,
          -0.1119854599237442,
          1.2042866945266724,
          -0.06560562551021576,
          -0.06317673623561859,
          -0.11430009454488754
        ],
        [
          0.15653224289417267,
          -0.05329752713441849,
          0.7280552983283997,
          1.8410242795944214,
          0.045421846210956573,
          -1.9866455793380737,
          -1.5053595304489136,
          1.676944375038147,
          1.8795034885406494,
          -0.557853102684021,
          -0.7831933498382568,
          -2.5604615211486816,
          -0.09700259566307068,
          0.6750181317329407,
          -0.5623561143875122,
          -0.22898469865322113,
          1.4032337665557861,
          0.07771866023540497,
          -0.0996343195438385,
          0.011492902413010597
        ],
        [
          -0.12621796131134033,
          0.24073325097560883,
          0.267466276884079,
          -0.002629409544169903,
          -0.08055884391069412,
          -0.08386226743459702,
          0.2586352825164795,
          -0.0828278660774231,
          0.17435921728610992,
          -0.15363237261772156,
          0.0763433501124382,
          0.1244787871837616,
          0.11429060995578766,
          -0.012197286821901798,
          0.16613127291202545,
          0.04936723783612251,
          0.18430247902870178,
          0.1354508399963379,
          0.029183439910411835,
          0.040345199406147
        ],
        [
          -0.0722324401140213,
          0.0027715989854186773,
          -0.09583590924739838,
          0.5008480548858643,
          -0.04381537809967995,
          -0.6645126342773438,
          -0.46680769324302673,
          0.2587670385837555,
          0.5068400502204895,
          -0.5279020667076111,
          -0.3660813570022583,
          -0.7321634292602539,
          -0.06112416461110115,
          0.26114413142204285,
          -0.2141907662153244,
          0.0418161042034626,
          0.4766349494457245,
          0.15573042631149292,
          -0.08827594667673111,
          -0.17539942264556885
        ],
        [
          0.2403727024793625,
          -0.08122435957193375,
          0.5292748212814331,
          1.6209454536437988,
          0.03577106073498726,
          -1.6900959014892578,
          -1.396108627319336,
          1.313747763633728,
          1.5112667083740234,
          -0.6587153077125549,
          -0.44140681624412537,
          -2.2015392780303955,
          -0.31042441725730896,
          0.48680683970451355,
          -0.3447386622428894,
          -0.30166059732437134,
          1.3558152914047241,
          0.1104293018579483,
          -0.2608555853366852,
          0.1638568490743637
        ]
      ],
      "biases": [
        -0.11027257889509201,
        0.1966395080089569,
        -0.09635931998491287,
        0.3169432580471039,
        -0.17678409814834595,
        0.06499072909355164,
        0.09565603733062744,
        0.23647235333919525,
        -0.21150515973567963,
        0.13899588584899902
      ]
    },
    {
      "weights": [
        [
          -0.5395435690879822,
          -0.8000162839889526,
          -0.06659726798534393,
          0.24902619421482086,
          -0.2756099998950958,
          -0.7811301350593567,
          -1.3941304683685303,
          0.30149778723716736,
          -0.24872910976409912,
          -1.1142231225967407
        ],
        [
          -0.7068646550178528,
          -0.7198249101638794,
          -0.14149828255176544,
          0.20662954449653625,
          -0.3751106858253479,
          -0.8695275783538818,
          -0.9056907892227173,
          -0.042234502732753754,
          -0.4910632371902466,
          -0.8080046772956848
        ],
        [
          -0.6135393977165222,
          -1.248899221420288,
          0.16056524217128754,
          0.6055971384048462,
          -0.06282401829957962,
          -1.211466670036316,
          -1.7903848886489868,
          0.5174625515937805,
          -0.23810385167598724,
          -1.2304579019546509
        ],
        [
          -0.43030408024787903,
          -0.48633402585983276,
          -0.24745570123195648,
          -0.05059940740466118,
          -0.3317384719848633,
          -0.5962129831314087,
          -0.7710811495780945,
          -0.2352302074432373,
          -0.3550989627838135,
          -0.892433226108551
        ],
        [
          -0.5858330726623535,
          -0.8093109726905823,
          -0.1350063979625702,
          -0.1457410603761673,
          -0.2388310581445694,
          -0.6636987328529358,
          -0.7962868809700012,
          -0.023350941017270088,
          -0.2685980796813965,
          -0.6441339254379272
        ],
        [
          -1.0488916635513306,
          -1.5933970212936401,
          0.4416678845882416,
          1.0579406023025513,
          -0.11655204743146896,
          -1.8487794399261475,
          -2.538022994995117,
          0.7132348418235779,
          -0.15888811647891998,
          -2.1705095767974854
        ],
        [
          -0.8498269319534302,
          -1.2375614643096924,
          0.38237476348876953,
          0.697024941444397,
          -0.3973141014575958,
          -1.3431891202926636,
          -1.9336341619491577,
          0.5373600721359253,
          -0.2546330392360687,
          -1.5110059976577759
        ],
        [
          -0.4667060077190399,
          -0.6708266735076904,
          -0.30400002002716064,
          -0.06745024770498276,
          -0.44560256600379944,
          -0.7293266654014587,
          -0.807594358921051,
          -0.114364854991436,
          -0.2276914268732071,
          -0.6849717497825623
        ],
        [
          -0.5875173807144165,
          -0.5350744724273682,
          0.0336601696908474,
          -0.05150855332612991,
          -0.3923877477645874,
          -0.743562638759613,
          -0.7895833253860474,
          -0.08424065262079239,
          -0.40214845538139343,
          -0.8158838152885437
        ],
        [
          -0.6811509132385254,
          -0.7881578207015991,
          -0.1667485237121582,
          0.24364043772220612,
          -0.22253845632076263,
          -0.8222134709358215,
          -1.0014766454696655,
          0.24681679904460907,
          -0.4875400960445404,
          -1.0814367532730103
        ]
      ],
      "biases": [
        0.38135477900505066,
        0.26427367329597473,
        0.7464757561683655,
        -0.06637391448020935,
        -0.06977437436580658,
        1.728251576423645,
        1.1078822612762451,
        -0.0022297357209026814,
        -0.06835798174142838,
        0.30338579416275024
      ]
    },
    {
      "weights": [
        [
          2.059229612350464,
          1.6431838274002075,
          2.7772088050842285,
          1.2144523859024048,
          1.2864925861358643,
          4.388218879699707,
          3.191135883331299,
          1.2995582818984985,
          1.3706269264221191,
          1.8471472263336182
        ]
      ],
      "biases": [
        -5.336644649505615
      ]
    }
  ],
  "inputLookup": null,
  "inputLookupLength": 0,
  "outputLookup": null,
  "outputLookupLength": 0,
  "options": {
    "inputSize": 0,
    "outputSize": 0,
    "binaryThresh": 0.5,
    "hiddenLayers": [
      10,
      10
    ],
    "activation": "sigmoid"
  },
  "trainOpts": {
    "activation": "sigmoid",
    "iterations": 2000,
    "errorThresh": 0.005,
    "log": true,
    "logPeriod": 200,
    "leakyReluAlpha": 0.01,
    "learningRate": 0.3,
    "momentum": 0.1,
    "callbackPeriod": 10,
    "timeout": "Infinity",
    "beta1": 0.9,
    "beta2": 0.999,
    "epsilon": 1e-8
  }
}