{
  "type": "LSTM",
  "options": {
    "inputSize": 28,
    "inputRange": 28,
    "hiddenLayers": [
      20,
      20
    ],
    "outputSize": 28,
    "decayRate": 0.999,
    "smoothEps": 1e-8,
    "regc": 0.000001,
    "clipval": 5,
    "maxPredictionLength": 100,
    "dataFormatter": {
      "indexTable": {
        "s": 0,
        "a": 1,
        "f": 2,
        "e": 3,
        " ": 4,
        "o": 5,
        "r": 6,
        "k": 7,
        "i": 8,
        "d": 9,
        "u": 10,
        "n": 11,
        "w": 12,
        "t": 13,
        "h": 14,
        "c": 15,
        "l": 16,
        "m": 17,
        "y": 18,
        "v": 19,
        "g": 20,
        "p": 21,
        "'": 22,
        "b": 23,
        "x": 24,
        "stop-input": 25,
        "start-output": 26,
        "unrecognized": 27
      },
      "characterTable": {
        "0": "s",
        "1": "a",
        "2": "f",
        "3": "e",
        "4": " ",
        "5": "o",
        "6": "r",
        "7": "k",
        "8": "i",
        "9": "d",
        "10": "u",
        "11": "n",
        "12": "w",
        "13": "t",
        "14": "h",
        "15": "c",
        "16": "l",
        "17": "m",
        "18": "y",
        "19": "v",
        "20": "g",
        "21": "p",
        "22": "'",
        "23": "b",
        "24": "x",
        "25": null,
        "26": null,
        "27": null
      },
      "values": [
        {
          "input": "safe for kids",
          "output": "safe"
        },
        {
          "input": "fun with children",
          "output": "safe"
        },
        {
          "input": "family movie night",
          "output": "safe"
        },
        {
          "input": "cute puppy video",
          "output": "safe"
        },
        {
          "input": "cartoon show",
          "output": "safe"
        },
        {
          "input": "playful story",
          "output": "safe"
        },
        {
          "input": "friendly animals",
          "output": "safe"
        },
        {
          "input": "children's songs",
          "output": "safe"
        },
        {
          "input": "kindergarten story",
          "output": "safe"
        },
        {
          "input": "educational cartoon",
          "output": "safe"
        },
        {
          "input": "this is bad content",
          "output": "unsafe"
        },
        {
          "input": "violent and scary",
          "output": "unsafe"
        },
        {
          "input": "adult content",
          "output": "unsafe"
        },
        {
          "input": "blood and gore",
          "output": "unsafe"
        },
        {
          "input": "horror scene",
          "output": "unsafe"
        },
        {
          "input": "graphic violence",
          "output": "unsafe"
        },
        {
          "input": "gore and death",
          "output": "unsafe"
        },
        {
          "input": "mature themes",
          "output": "unsafe"
        },
        {
          "input": "bloodbath scene",
          "output": "unsafe"
        },
        {
          "input": "explicit adult video",
          "output": "unsafe"
        },
        {
          "input": "fun story for kids",
          "output": "safe"
        },
        {
          "input": "happy cartoon adventure",
          "output": "safe"
        },
        {
          "input": "educational song",
          "output": "safe"
        },
        {
          "input": "graphic horror",
          "output": "unsafe"
        },
        {
          "input": "violent horror scene",
          "output": "unsafe"
        },
        {
          "input": "adult horror movie",
          "output": "unsafe"
        },
        {
          "input": "cute kitten video",
          "output": "safe"
        },
        {
          "input": "family friendly show",
          "output": "safe"
        },
        {
          "input": "gory battle scene",
          "output": "unsafe"
        },
        {
          "input": "scary movie scene",
          "output": "unsafe"
        }
      ],
      "characters": [
        "s",
        "a",
        "f",
        "e",
        " ",
        "o",
        "r",
        "k",
        "i",
        "d",
        "u",
        "n",
        "w",
        "t",
        "h",
        "c",
        "l",
        "m",
        "y",
        "v",
        "g",
        "p",
        "'",
        "b",
        "x",
        "stop-input",
        "start-output",
        "unrecognized"
      ],
      "specialIndexes": [
        25,
        26,
        27
      ]
    }
  },
  "trainOpts": {
    "iterations": 2000,
    "errorThresh": 0.005,
    "log": true,
    "logPeriod": 100,
    "learningRate": 0.01,
    "callbackPeriod": 10,
    "timeout": "Infinity"
  },
  "input": {
    "rows": 29,
    "columns": 28,
    "weights": [
      -0.26729562878608704,
      -0.7816115617752075,
      2.185088634490967,
      -1.0184346437454224,
      -2.55115008354187,
      0.14985248446464539,
      -0.8518036007881165,
      2.188814640045166,
      0.6099494099617004,
      0.484042763710022,
      1.24184250831604,
      -1.5055936574935913,
      0.07948151975870132,
      0.4757625460624695,
      -1.6426011323928833,
      -0.9785745739936829,
      1.0774922370910645,
      0.23661811649799347,
      0.3729402422904968,
      2.1542704105377197,
      1.1992106437683105,
      -2.1755292415618896,
      1.14867103099823,
      -2.8665263652801514,
      -1.0405175685882568,
      -1.91158926486969,
      -1.540340542793274,
      1.9878103733062744,
      0.02499728836119175,
      0.24347905814647675,
      -0.005210192874073982,
      0.05737718939781189,
      2.713521718978882,
      1.873378038406372,
      -0.5965213775634766,
      -1.6542340517044067,
      -2.479193687438965,
      -0.5795847773551941,
      -0.6501781940460205,
      0.19363060593605042,
      0.4701995253562927,
      -0.33692649006843567,
      -1.7918230295181274,
      -2.118300199508667,
      1.2936029434204102,
      -1.5636534690856934,
      1.129693865776062,
      -1.0688804388046265,
      -1.5702197551727295,
      1.1080328226089478,
      2.3870840072631836,
      2.3339219093322754,
      -2.160841226577759,
      1.5554602146148682,
      0.20811598002910614,
      1.347910761833191,
      0.5371006727218628,
      -0.20049811899662018,
      -0.31149420142173767,
      0.25881654024124146,
      0.20214228332042694,
      0.31824955344200134,
      0.26396265625953674,
      0.019666923210024834,
      -0.6379573941230774,
      -0.1706080287694931,
      -2.3030288219451904,
      -0.3285067081451416,
      1.0893871784210205,
      0.372379869222641,
      -0.09302831441164017,
      0.009708048775792122,
      -0.3108749985694885,
      0.11301060765981674,
      0.11513188481330872,
      -0.42798829078674316,
      -0.12445298582315445,
      0.902184009552002,
      0.4076331555843353,
      0.3172065019607544,
      0.07798364013433456,
      -0.17719365656375885,
      0.11767810583114624,
      -0.5906612277030945,
      0.33451521396636963,
      -0.15708068013191223,
      -0.5384030342102051,
      1.306396245956421,
      1.1626237630844116,
      0.5566720962524414,
      -1.6940773725509644,
      1.813280463218689,
      0.3371935486793518,
      1.2626885175704956,
      2.8450465202331543,
      2.4767823219299316,
      -2.8315227031707764,
      -2.3483762741088867,
      -2.0358340740203857,
      0.5609657168388367,
      0.8582667112350464,
      -0.372347891330719,
      -0.4613306224346161,
      -0.0071062082424759865,
      -0.42623090744018555,
      -1.8253908157348633,
      1.7435799837112427,
      -0.27086111903190613,
      -1.7152036428451538,
      2.1712636947631836,
      -0.9454618692398071,
      1.241450309753418,
      0.5241327881813049,
      -0.15422329306602478,
      0.2803991138935089,
      -0.15202105045318604,
      -0.44144758582115173,
      1.5211360454559326,
      -0.6035814881324768,
      -0.22905363142490387,
      0.6069465279579163,
      0.9705713987350464,
      0.10321997106075287,
      0.34422069787979126,
      -0.005669800098985434,
      -0.4394359290599823,
      -1.136199951171875,
      0.399567186832428,
      -0.13699263334274292,
      -2.0692226886749268,
      0.6894651055335999,
      -0.4674592912197113,
      -0.9805454015731812,
      -0.07847890257835388,
      -0.04501555114984512,
      -0.3512975871562958,
      0.4859152138233185,
      1.0853157043457031,
      -0.18129879236221313,
      -0.21382111310958862,
      0.09102153033018112,
      -2.120692253112793,
      -0.26171213388442993,
      -2.0905921459198,
      -3.161161184310913,
      2.1310596466064453,
      0.41493359208106995,
      -0.20784620940685272,
      -1.7065939903259277,
      -4.269465923309326,
      -0.3186912536621094,
      -0.1608475148677826,
      0.8855911493301392,
      1.4028382301330566,
      -1.0887911319732666,
      1.6014193296432495,
      0.07152380794286728,
      -0.36469319462776184,
      1.4473247528076172,
      0.4182937443256378,
      3.9154281616210938,
      3.117966413497925,
      0.4984970688819885,
      -1.0817433595657349,
      5.262670040130615,
      -2.7109456062316895,
      -1.504746913909912,
      -0.6719225645065308,
      -0.028466807678341866,
      0.7124410271644592,
      1.0077805519104004,
      -0.8640873432159424,
      0.691344678401947,
      0.5957005023956299,
      0.69576096534729,
      -0.004674189258366823,
      -1.3525376319885254,
      0.5871559977531433,
      0.3687226176261902,
      -1.1654295921325684,
      -0.3367733657360077,
      0.6188985109329224,
      -1.1847888231277466,
      0.932602047920227,
      -0.10521776974201202,
      -0.472316175699234,
      0.34277603030204773,
      -0.8302501440048218,
      0.016962019726634026,
      -0.6346728205680847,
      1.066569209098816,
      0.5384589433670044,
      -0.4725866913795471,
      0.750762403011322,
      1.1724506616592407,
      -1.5377764701843262,
      1.5925277471542358,
      0.1475246697664261,
      -0.6545186638832092,
      -0.4172416031360626,
      1.2495704889297485,
      1.1448277235031128,
      -0.9823387265205383,
      -0.015460764989256859,
      -0.16717658936977386,
      -0.6183713674545288,
      1.4570709466934204,
      0.6633875966072083,
      -1.0560799837112427,
      -1.3911105394363403,
      0.854158878326416,
      -2.6319801807403564,
      0.41905227303504944,
      -0.263441264629364,
      0.2539888322353363,
      -2.078901767730713,
      0.4231828451156616,
      0.05991948023438454,
      -0.35000020265579224,
      3.778444766998291,
      0.6565309762954712,
      0.7193703055381775,
      -0.42610663175582886,
      -1.1557810306549072,
      -8.320114135742188,
      -4.497705459594727,
      -8.137699127197266,
      6.372862815856934,
      0.13619855046272278,
      -2.861900806427002,
      3.947869062423706,
      -7.344244003295898,
      1.0506207942962646,
      -6.976841449737549,
      -5.2477312088012695,
      -16.55797004699707,
      1.3915483951568604,
      -2.0404326915740967,
      7.292956352233887,
      2.008554697036743,
      -2.099715232849121,
      7.144281387329102,
      0.8387952446937561,
      -4.96923828125,
      3.165161371231079,
      -4.329263687133789,
      -6.974541187286377,
      1.4906234741210938,
      7.708187103271484,
      -2.8357186317443848,
      1.9463322162628174,
      -0.4565170705318451,
      -2.49099063873291,
      -0.3867725431919098,
      -5.439499855041504,
      -0.03657277673482895,
      5.393667697906494,
      -1.4759413003921509,
      -0.2578020691871643,
      -0.6057367920875549,
      -1.7716457843780518,
      -0.5656421184539795,
      -2.800696849822998,
      -0.7116446495056152,
      1.2619073390960693,
      0.13051120936870575,
      1.486628770828247,
      2.4273650646209717,
      0.573175311088562,
      0.4676491618156433,
      -0.46968960762023926,
      -0.5834275484085083,
      -1.3183002471923828,
      1.9112268686294556,
      1.1737847328186035,
      1.5544304847717285,
      0.19087617099285126,
      -1.359687089920044,
      1.249182939529419,
      -3.457576274871826,
      -1.7165088653564453,
      -1.6696666479110718,
      2.1566364765167236,
      -1.9822616577148438,
      -2.9407269954681396,
      0.5633884072303772,
      -1.212660551071167,
      1.9870244264602661,
      1.2539310455322266,
      -0.4173893630504608,
      0.1311948597431183,
      -3.298199415206909,
      0.7095349431037903,
      1.0027332305908203,
      -1.7774572372436523,
      -0.12787990272045135,
      -0.19102628529071808,
      0.8555650115013123,
      1.377140998840332,
      5.380952835083008,
      3.2847108840942383,
      -1.6898125410079956,
      3.0653257369995117,
      -5.803173542022705,
      0.9965049028396606,
      -1.276750922203064,
      -4.825445652008057,
      5.792198657989502,
      -0.6748102307319641,
      4.101955413818359,
      -0.7763898968696594,
      -3.0302233695983887,
      3.9255595207214355,
      -2.457422971725464,
      0.006218897644430399,
      1.3911703824996948,
      -4.476768970489502,
      0.7499713897705078,
      1.9348922967910767,
      -0.7433335781097412,
      -0.9322541356086731,
      1.0177615880966187,
      0.14038582146167755,
      3.7278807163238525,
      -0.7708189487457275,
      -3.2432162761688232,
      1.548757791519165,
      1.015125036239624,
      -1.4075285196304321,
      -2.314552068710327,
      -1.2050002813339233,
      1.6584861278533936,
      -3.1225650310516357,
      -2.6960654258728027,
      1.3350356817245483,
      -0.5996869206428528,
      0.9634850025177002,
      0.7077762484550476,
      1.7338098287582397,
      -0.7455987930297852,
      -1.6117275953292847,
      -0.9577754735946655,
      -0.4980522096157074,
      3.306873083114624,
      0.5552495718002319,
      -0.020852023735642433,
      4.059914588928223,
      -0.15516521036624908,
      -1.0178453922271729,
      -1.2153574228286743,
      -0.4533401131629944,
      -2.623659372329712,
      -0.18413352966308594,
      0.9579524993896484,
      -1.6375819444656372,
      -0.41768333315849304,
      1.3221986293792725,
      -2.6022708415985107,
      1.8949745893478394,
      1.2060256004333496,
      -0.3621083199977875,
      0.587139368057251,
      0.9090545177459717,
      -0.04306239262223244,
      -10.957001686096191,
      -4.29061222076416,
      -3.7648766040802,
      -2.39129376411438,
      -1.7174221277236938,
      -1.2394931316375732,
      -3.9071555137634277,
      -3.868415355682373,
      6.669801712036133,
      0.9949128031730652,
      -3.334247350692749,
      -6.2535905838012695,
      5.485665321350098,
      4.9084672927856445,
      -1.4510507583618164,
      8.843859672546387,
      -5.664475917816162,
      -2.6814136505126953,
      2.515390634536743,
      1.4355275630950928,
      -0.2416578233242035,
      0.5828230381011963,
      -4.028733253479004,
      -3.6104049682617188,
      3.25046706199646,
      -3.7520976066589355,
      -4.677488327026367,
      -4.650923728942871,
      2.523491621017456,
      1.4381061792373657,
      -1.1288399696350098,
      -0.5075128078460693,
      4.542318344116211,
      1.7457194328308105,
      1.1345268487930298,
      1.743298888206482,
      0.09410630911588669,
      -0.2786102592945099,
      1.621026635169983,
      1.5772041082382202,
      -2.0410690307617188,
      -1.1366140842437744,
      -0.3791249692440033,
      -0.8044469952583313,
      2.0332043170928955,
      -2.1173362731933594,
      1.2030115127563477,
      -0.36420944333076477,
      2.009028196334839,
      -1.5534498691558838,
      2.3386170864105225,
      1.9795421361923218,
      -0.9735661745071411,
      -0.03581313043832779,
      -0.40771836042404175,
      -0.8042412400245667,
      -3.1758873462677,
      0.9752902984619141,
      3.240891695022583,
      -1.8199537992477417,
      -3.3239998817443848,
      -2.7446160316467285,
      0.9603399038314819,
      4.907992362976074,
      1.8969210386276245,
      1.2183641195297241,
      2.1406409740448,
      -4.291545867919922,
      -1.5223515033721924,
      1.8469669818878174,
      0.4536682069301605,
      -1.5697742700576782,
      0.6122996211051941,
      0.20877335965633392,
      -0.2746971845626831,
      4.706826686859131,
      1.702765941619873,
      -6.292110443115234,
      -0.6336057186126709,
      -5.077958106994629,
      -0.3010059893131256,
      -1.3899019956588745,
      -0.07323384284973145,
      5.805366516113281,
      -3.413928270339966,
      -1.0906307697296143,
      -0.8920453190803528,
      3.0911450386047363,
      0.20705413818359375,
      -2.768794059753418,
      -1.7160204648971558,
      -0.15307043492794037,
      -0.30820757150650024,
      1.0432020425796509,
      0.0023000729270279408,
      -1.5677382946014404,
      0.6711603999137878,
      0.37127453088760376,
      -1.3450400829315186,
      -0.7252169251441956,
      0.6739543080329895,
      1.125723958015442,
      -1.749906301498413,
      4.190187454223633,
      2.44099760055542,
      1.902294635772705,
      -1.159417748451233,
      -0.8215439915657043,
      1.7038171291351318,
      -5.986312389373779,
      -3.026763439178467,
      0.2342151254415512,
      3.9233553409576416,
      5.318599700927734,
      2.94382381439209,
      1.482540488243103,
      -3.6594150066375732,
      -3.4033477306365967,
      1.9978806972503662,
      6.810874938964844,
      1.2262723445892334,
      5.107514381408691,
      5.031991481781006,
      4.002338409423828,
      -3.4606051445007324,
      -3.4104228019714355,
      -0.24115386605262756,
      -6.387266159057617,
      3.8551759719848633,
      2.25045108795166,
      -3.5555708408355713,
      -1.6349557638168335,
      3.1496152877807617,
      -7.89059591293335,
      1.5493353605270386,
      4.798373222351074,
      -0.11163144558668137,
      2.343820571899414,
      -0.8878123760223389,
      -1.6122713088989258,
      -9.286290168762207,
      -3.78682279586792,
      3.732679843902588,
      3.996141195297241,
      0.3218013346195221,
      -5.462774753570557,
      -1.7165330648422241,
      4.792836666107178,
      -2.7714552879333496,
      -1.8441977500915527,
      4.5486345291137695,
      -2.1118764877319336,
      -2.625994920730591,
      -2.730409860610962,
      -7.14853572845459,
      -2.6511223316192627,
      8.084227561950684,
      1.6302859783172607,
      -2.9188218116760254,
      4.2393388748168945,
      1.8503293991088867,
      -4.755251407623291,
      -4.549951076507568,
      -0.7143464684486389,
      -2.962529182434082,
      1.334967851638794,
      -3.9563395977020264,
      7.761980056762695,
      -0.29940325021743774,
      5.231730937957764,
      4.501031875610352,
      -3.1447997093200684,
      -0.28515440225601196,
      1.7198784351348877,
      -1.9320709705352783,
      2.5710666179656982,
      -2.4307305812835693,
      -0.7848199009895325,
      4.619928359985352,
      0.778298020362854,
      -3.4715983867645264,
      -0.11389392614364624,
      -2.2894232273101807,
      -1.9183590412139893,
      0.04425768181681633,
      -0.58260178565979,
      0.5566830635070801,
      0.8141496777534485,
      -3.919271945953369,
      -4.971713066101074,
      3.6384217739105225,
      -1.8212119340896606,
      -6.53715705871582,
      4.743668079376221,
      3.9109694957733154,
      2.2598719596862793,
      -13.035943031311035,
      -3.6387884616851807,
      4.218669891357422,
      1.4310246706008911,
      1.1727770566940308,
      -5.776538848876953,
      -6.097306728363037,
      1.7023916244506836,
      1.489688754081726,
      1.3623857498168945,
      0.6385243535041809,
      0.8243634104728699,
      0.9858821034431458,
      -1.4197866916656494,
      -3.153742551803589,
      -5.04421854019165,
      5.2523627281188965,
      -1.0657190084457397,
      -5.02924108505249,
      1.989592432975769,
      4.977198123931885,
      -0.9353430271148682,
      0.342392235994339,
      -4.276125907897949,
      -1.189570665359497,
      -0.10527099668979645,
      -0.2291119396686554,
      4.990443229675293,
      -7.454397678375244,
      -0.5556116104125977,
      -4.102914333343506,
      -2.4780499935150146,
      4.829803466796875,
      -3.7710046768188477,
      -0.7125486135482788,
      -0.9163769483566284,
      -0.5632820129394531,
      2.7037882804870605,
      -0.5772241353988647,
      -1.9623188972473145,
      0.7768420577049255,
      -3.269531488418579,
      1.3845666646957397,
      3.912534713745117,
      -0.38439416885375977,
      -2.02874493598938,
      2.686985969543457,
      -3.6270928382873535,
      4.754795074462891,
      0.27147966623306274,
      6.536942481994629,
      2.7655253410339355,
      -4.394589900970459,
      2.1437325477600098,
      2.9522626399993896,
      -7.917479038238525,
      0.6228719353675842,
      -0.9371044039726257,
      -5.052665710449219,
      4.125089645385742,
      -0.48224979639053345,
      -8.38969612121582,
      7.3326735496521,
      -1.8825922012329102,
      3.8083245754241943,
      -2.313340663909912,
      -3.3845367431640625,
      -7.730151653289795,
      1.7097622156143188,
      0.123470239341259,
      5.149015426635742,
      5.215946197509766,
      -2.7847819328308105,
      4.8321003913879395,
      -2.042048454284668,
      -0.041205063462257385,
      3.1279616355895996,
      -2.0303165912628174,
      -2.8114283084869385,
      -4.812378883361816,
      7.35273551940918,
      -1.3897958993911743,
      -2.093259811401367,
      -1.1612011194229126,
      2.84438157081604,
      16.608280181884766,
      7.459096908569336,
      -1.697460412979126,
      0.6901875138282776,
      -15.702502250671387,
      -10.545892715454102,
      17.39994239807129,
      -2.435380220413208,
      7.255098342895508,
      18.460145950317383,
      4.287948131561279,
      -4.428590774536133,
      -5.426892280578613,
      -2.995309352874756,
      -23.26966667175293,
      10.953902244567871,
      -9.774561882019043,
      -5.815332889556885,
      -13.790741920471191,
      7.476446628570557,
      -9.218460083007812,
      -2.073195695877075,
      18.74757957458496,
      5.425411224365234,
      8.514534950256348,
      5.132289409637451,
      -0.8839111924171448,
      -2.489025592803955,
      -3.191516160964966,
      9.172078132629395,
      3.378635883331299,
      4.575226783752441,
      2.3478612899780273,
      4.739806175231934,
      3.48616886138916,
      5.747161388397217,
      -1.7591421604156494,
      1.828894019126892,
      -1.1648029088974,
      -0.4379773736000061,
      2.9475011825561523,
      -6.986617088317871,
      -2.8892061710357666,
      10.140839576721191,
      -1.8350390195846558,
      2.108269214630127,
      8.144054412841797,
      8.283555030822754,
      -8.350258827209473,
      0.516932487487793,
      -6.716989994049072,
      0.3409344553947449,
      1.606744408607483,
      -1.4324626922607422,
      5.683222770690918,
      -4.340725898742676,
      0.5698552131652832,
      -14.127256393432617,
      11.933993339538574,
      -0.9407793283462524,
      -17.011375427246094,
      5.319371223449707,
      -10.938765525817871,
      6.111869812011719,
      -12.880212783813477,
      -0.03276980668306351,
      4.713432788848877,
      1.2102967500686646,
      -5.815101146697998,
      12.483429908752441,
      3.800879716873169,
      -8.575865745544434,
      6.360381603240967,
      -13.873063087463379,
      -3.975541353225708,
      7.3039398193359375,
      12.006172180175781,
      -3.708207845687866,
      10.736279487609863,
      -3.807861804962158,
      -24.740859985351562,
      2.5902843475341797,
      -12.354791641235352,
      -0.42180004715919495,
      1.2097845077514648,
      2.1245198249816895,
      -1.5826996564865112,
      -2.0600993633270264,
      -4.45908260345459,
      0.6398309469223022,
      1.1254664659500122,
      2.8473541736602783,
      1.7428874969482422,
      2.338329792022705,
      3.0636796951293945,
      0.9089712500572205,
      0.8885332345962524,
      3.232330083847046,
      -1.539791226387024,
      -1.8162535429000854,
      -0.9527861475944519,
      -2.789402484893799,
      0.5993656516075134,
      -0.9555782079696655,
      -2.1265110969543457,
      1.4982163906097412,
      1.316939115524292,
      -3.386364698410034,
      -3.4132893085479736,
      0.19754037261009216,
      0.9568518996238708,
      1.9872392416000366,
      1.2524101734161377,
      0.6376194953918457,
      0.8776645660400391,
      -0.7130717635154724,
      2.155305862426758,
      1.0095549821853638,
      -0.33530592918395996,
      -0.2148909568786621,
      0.09820669144392014,
      -0.6642327308654785,
      -1.2815392017364502,
      -0.5675374865531921,
      -0.5400153398513794,
      -1.9767982959747314,
      0.8151840567588806,
      2.3114964962005615,
      -0.511336088180542,
      1.4388680458068848,
      -0.21041074395179749,
      -3.3387458324432373,
      -1.1086452007293701,
      0.01559696439653635,
      0.11836563050746918,
      -0.7468274235725403,
      6.693606853485107,
      -0.7888473272323608,
      -0.3509284257888794,
      -0.02271626889705658,
      -0.00485216686502099,
      -0.04985431954264641,
      0.04115528613328934,
      -0.014481035061180592,
      0.024644440039992332,
      0.018470751121640205,
      -0.07371402531862259,
      -0.03382382541894913,
      -0.04742874205112457,
      0.05286916345357895,
      0.04966391250491142,
      -0.02835867553949356,
      -0.02738298662006855,
      0.014418665319681168,
      0.07345613837242126,
      -0.024105645716190338,
      -0.03691116347908974,
      0.04530114680528641,
      -0.04542957618832588,
      0.005872621666640043,
      -0.04832984507083893,
      0.03918968513607979,
      0.021668067201972008,
      0.0050107697024941444,
      -0.04227147251367569,
      0.015454002656042576,
      0.01599918119609356
    ]
  },
  "hiddenLayers": [
    {
      "inputMatrix": {
        "rows": 20,
        "columns": 28,
        "weights": [
          -2.256344795227051,
          0.565483808517456,
          -1.799220085144043,
          -1.1994717121124268,
          3.7699193954467773,
          0.2670615315437317,
          0.5725167989730835,
          -2.2889556884765625,
          -2.5013556480407715,
          -0.9679286479949951,
          0.7511822581291199,
          -1.0367625951766968,
          -0.49245932698249817,
          1.4118752479553223,
          0.6434530019760132,
          3.1939666271209717,
          0.6998124122619629,
          -0.8042682409286499,
          1.1670161485671997,
          0.35082679986953735,
          1.281543254852295,
          0.9537705779075623,
          -1.4200044870376587,
          1.0079164505004883,
          -1.2668429613113403,
          -1.1942540407180786,
          -0.805583655834198,
          -1.9268138408660889,
          0.9956352114677429,
          0.39084088802337646,
          -0.05655031278729439,
          1.273073673248291,
          0.4076290726661682,
          0.7213935256004333,
          -0.49926474690437317,
          -0.8572134971618652,
          0.9701960682868958,
          -0.868626058101654,
          -0.01087357196956873,
          2.2534055709838867,
          -0.957007884979248,
          -1.08474600315094,
          0.24170632660388947,
          -3.1405651569366455,
          2.643526554107666,
          1.4145605564117432,
          -1.4157261848449707,
          0.12333527207374573,
          0.21355494856834412,
          1.0591285228729248,
          0.44105303287506104,
          1.653766393661499,
          -3.8817636966705322,
          1.1907708644866943,
          -1.1117621660232544,
          1.6678364276885986,
          0.533325731754303,
          -0.02256109192967415,
          -1.8298661708831787,
          0.8773649334907532,
          0.6933591961860657,
          0.21314944326877594,
          -0.3978712260723114,
          -0.35603147745132446,
          0.8314449787139893,
          1.0276377201080322,
          -0.061770666390657425,
          1.3317970037460327,
          -0.4055168032646179,
          -0.20658421516418457,
          0.17231199145317078,
          1.5043854713439941,
          -0.23847253620624542,
          0.2639741897583008,
          -0.5180624127388,
          0.24749647080898285,
          -2.7604129314422607,
          0.8525702357292175,
          -1.0955934524536133,
          -0.4714859426021576,
          0.8521284461021423,
          0.7018558979034424,
          -0.7978977560997009,
          0.26884812116622925,
          0.6233759522438049,
          0.3659883439540863,
          -0.4263557493686676,
          -0.0016954020829871297,
          1.8540542125701904,
          -1.5522059202194214,
          0.24346451461315155,
          0.6812139749526978,
          -2.4855313301086426,
          -0.19917379319667816,
          -1.0441594123840332,
          -0.17804160714149475,
          0.2951306402683258,
          0.13441982865333557,
          0.5088419318199158,
          0.019535575062036514,
          -0.5549047589302063,
          0.04684242978692055,
          0.1407671421766281,
          -0.774070143699646,
          -0.9358806610107422,
          1.2987174987792969,
          2.4314844608306885,
          2.193614959716797,
          -1.4756804704666138,
          1.497093677520752,
          0.18729107081890106,
          -1.226311445236206,
          2.930464506149292,
          2.550957202911377,
          -2.5323617458343506,
          -0.8662012219429016,
          3.376826286315918,
          -0.29608750343322754,
          3.03853440284729,
          -1.7889704704284668,
          -3.186943769454956,
          -1.718276023864746,
          -1.6730281114578247,
          -1.6437777280807495,
          -0.142218679189682,
          1.6359870433807373,
          2.090857982635498,
          -0.45353153347969055,
          0.053416091948747635,
          0.416291207075119,
          -0.23035134375095367,
          -2.0027313232421875,
          1.5316212177276611,
          2.0762879848480225,
          1.4261828660964966,
          2.8524820804595947,
          1.5863144397735596,
          0.6375674605369568,
          1.2715964317321777,
          -4.051580429077148,
          -0.436923623085022,
          0.3648384213447571,
          -0.9819847345352173,
          0.33179983496665955,
          -0.6433635950088501,
          -2.3057749271392822,
          -0.8320406079292297,
          0.18505480885505676,
          0.8614493608474731,
          0.9377570748329163,
          -1.7858974933624268,
          1.9374898672103882,
          1.823441982269287,
          -0.009677605703473091,
          2.7246930599212646,
          1.009684443473816,
          -3.3020126819610596,
          -1.276526927947998,
          -1.2763731479644775,
          0.753835141658783,
          -2.956547498703003,
          2.3648948669433594,
          -1.4016501903533936,
          1.0492664575576782,
          1.3179123401641846,
          -2.2792959213256836,
          -0.4265180826187134,
          -0.48380735516548157,
          1.4274780750274658,
          -0.8607870936393738,
          0.8835684657096863,
          0.5025494694709778,
          -2.4672610759735107,
          1.4723964929580688,
          0.38733863830566406,
          -1.4562463760375977,
          0.9555787444114685,
          0.9225804209709167,
          -0.7534498572349548,
          1.4882358312606812,
          0.8174923658370972,
          -0.030947569757699966,
          -0.6188439130783081,
          2.236642360687256,
          -1.555849313735962,
          -1.018874168395996,
          0.8913386464118958,
          -0.9376366138458252,
          -3.2606680393218994,
          0.44390881061553955,
          -2.421520471572876,
          -1.0279550552368164,
          3.0391814708709717,
          0.9867850542068481,
          1.4281692504882812,
          -0.9274168610572815,
          0.4373198449611664,
          0.21306000649929047,
          -0.04365440085530281,
          0.8176154494285583,
          -0.06391041725873947,
          -0.20194317400455475,
          -0.1529477834701538,
          -0.7388847470283508,
          -0.43819504976272583,
          -0.76773601770401,
          -1.7774033546447754,
          -0.6356558203697205,
          1.0139106512069702,
          0.9633726477622986,
          0.09018614143133163,
          -2.2170426845550537,
          -0.008181116543710232,
          0.9983066320419312,
          -0.8793734312057495,
          0.3389078378677368,
          0.6478646993637085,
          1.8613907098770142,
          0.39370638132095337,
          0.3065650761127472,
          -1.3219965696334839,
          -1.2018650770187378,
          0.17348557710647583,
          0.9622959494590759,
          -1.2620341777801514,
          0.8655672073364258,
          0.5355311036109924,
          -0.3644354045391083,
          -0.5223256945610046,
          2.421349048614502,
          -0.7812126874923706,
          -0.8720205426216125,
          -2.0797464847564697,
          -2.4859726428985596,
          -0.6387495994567871,
          -3.7396271228790283,
          1.5670242309570312,
          1.7610474824905396,
          -1.700774073600769,
          3.127911329269409,
          -0.589335024356842,
          -1.3126786947250366,
          2.8488643169403076,
          -0.6478163003921509,
          -4.18629264831543,
          0.8753710389137268,
          -0.2792576849460602,
          -0.31258028745651245,
          1.361733078956604,
          0.7412708401679993,
          1.1973035335540771,
          1.4843463897705078,
          -3.3760082721710205,
          0.22561395168304443,
          1.1188071966171265,
          -1.1007345914840698,
          1.8370250463485718,
          0.11449066549539566,
          -0.9204370975494385,
          0.2962360978126526,
          -1.6133161783218384,
          0.3561086654663086,
          0.7372561693191528,
          0.48915478587150574,
          -1.145211100578308,
          0.8525366187095642,
          -1.1109509468078613,
          2.245549440383911,
          0.19571800529956818,
          0.2995658218860626,
          -0.12286409735679626,
          1.0806021690368652,
          -3.027003288269043,
          -0.40045323967933655,
          -0.5761907696723938,
          0.17844201624393463,
          -2.5616776943206787,
          0.23246248066425323,
          1.0997575521469116,
          -0.22402581572532654,
          -1.5009219646453857,
          0.5338554382324219,
          -0.18063969910144806,
          -2.939441442489624,
          -0.6382573843002319,
          1.9143681526184082,
          -0.6717792749404907,
          -1.8964980840682983,
          0.1590760052204132,
          0.17460750043392181,
          -2.0690009593963623,
          -0.9324849843978882,
          1.8275450468063354,
          1.6634923219680786,
          0.8668519258499146,
          2.111081600189209,
          -1.5840272903442383,
          -2.884491205215454,
          2.135274887084961,
          -0.06282895058393478,
          -5.2208991050720215,
          1.1282851696014404,
          0.45532166957855225,
          0.06079830229282379,
          -1.2765164375305176,
          1.9946284294128418,
          1.1128908395767212,
          0.38965272903442383,
          0.26515617966651917,
          0.007572409696877003,
          -1.0683329105377197,
          0.7919853329658508,
          0.6120573878288269,
          -0.09107851982116699,
          -0.9197114109992981,
          -0.9177954792976379,
          0.1716882288455963,
          1.0744285583496094,
          -0.7753994464874268,
          0.5239460468292236,
          -0.1481059044599533,
          -0.6890332698822021,
          -0.7253104448318481,
          1.1500622034072876,
          -0.7957602143287659,
          0.08829386532306671,
          -0.2941931188106537,
          -1.3525779247283936,
          -1.8563592433929443,
          1.940567970275879,
          -1.5450162887573242,
          0.474340558052063,
          3.7410976886749268,
          0.01060968916863203,
          -0.34886634349823,
          -0.8697113990783691,
          1.326729416847229,
          -0.05123046040534973,
          0.3743751049041748,
          0.5701130032539368,
          -0.8987388610839844,
          0.44800856709480286,
          0.5598375797271729,
          -0.9536933898925781,
          0.2834204435348511,
          0.020058492198586464,
          -0.782745897769928,
          -0.3483079671859741,
          -0.029512757435441017,
          0.1035999059677124,
          -0.07048660516738892,
          2.115769863128662,
          -2.9825820922851562,
          0.8893344402313232,
          0.15949225425720215,
          -0.005135222803801298,
          -1.6139211654663086,
          0.23421090841293335,
          -0.7783774137496948,
          -1.101359486579895,
          2.2416820526123047,
          1.589117169380188,
          0.6589601635932922,
          -1.919459581375122,
          0.6723802089691162,
          1.4550453424453735,
          -2.3986830711364746,
          0.507006824016571,
          1.4564298391342163,
          -1.6139464378356934,
          1.942911148071289,
          -0.47814685106277466,
          -1.3761879205703735,
          -0.14392758905887604,
          -3.5878775119781494,
          -0.7831740379333496,
          1.116942286491394,
          0.6215516924858093,
          2.1126909255981445,
          0.7628064751625061,
          -2.368713617324829,
          -0.17301875352859497,
          -0.7480631470680237,
          -0.7675697803497314,
          2.6503782272338867,
          1.9550127983093262,
          0.26226699352264404,
          0.7667078971862793,
          0.34679993987083435,
          -1.5287196636199951,
          0.07231133431196213,
          -4.9005231857299805,
          -0.37542352080345154,
          0.41201052069664,
          -0.09538748115301132,
          1.2607622146606445,
          -0.772649347782135,
          0.1752743124961853,
          0.6928509473800659,
          -1.9593911170959473,
          1.0573252439498901,
          1.4632017612457275,
          -2.6920111179351807,
          -0.6228470802307129,
          2.7192089557647705,
          -0.04744972661137581,
          -1.4847620725631714,
          3.023775339126587,
          -3.9643921852111816,
          -1.1784255504608154,
          1.1640870571136475,
          -1.9956037998199463,
          -2.0472311973571777,
          1.5499980449676514,
          -1.149280071258545,
          -0.04089399054646492,
          0.8820434212684631,
          2.229349136352539,
          0.9848358035087585,
          -3.7038886547088623,
          -1.5599251985549927,
          0.7226473689079285,
          -0.9560214281082153,
          0.977393627166748,
          0.6134523749351501,
          -2.873891592025757,
          -1.3211867809295654,
          -1.3161671161651611,
          1.302646517753601,
          0.7384117841720581,
          -0.3294890522956848,
          0.9941334128379822,
          -0.4774647653102875,
          -0.9378845691680908,
          1.459460735321045,
          -0.2765827476978302,
          -1.18487548828125,
          -0.9311590194702148,
          -2.068011999130249,
          0.29006895422935486,
          0.6317773461341858,
          0.7662698030471802,
          -0.5606240630149841,
          -0.5432104468345642,
          -0.23633907735347748,
          -0.08870323747396469,
          0.700069785118103,
          -1.2756484746932983,
          -2.6478846073150635,
          -2.3503830432891846,
          1.3308525085449219,
          1.0352305173873901,
          -1.0806199312210083,
          1.7030030488967896,
          -1.4716702699661255,
          0.18699567019939423,
          0.683077335357666,
          -0.686619222164154,
          0.2575702965259552,
          -0.510422945022583,
          -1.45974600315094,
          -1.059165120124817,
          -1.294863224029541,
          1.7656861543655396,
          0.2653754949569702,
          1.326867938041687,
          0.47436511516571045,
          1.8325228691101074,
          -0.5971795320510864,
          -1.3244835138320923,
          -4.462435245513916,
          -2.727670192718506,
          1.9263548851013184,
          -0.3629341721534729,
          -1.5999757051467896,
          0.7968880534172058,
          -2.967578411102295,
          -0.6420279741287231,
          -1.6523751020431519,
          1.5594669580459595,
          1.7743045091629028,
          -2.9743618965148926,
          0.7050857543945312,
          -1.1934354305267334,
          -0.7906691431999207,
          -1.2909222841262817,
          -0.35527747869491577,
          -0.6466274261474609,
          0.29317203164100647,
          0.6711812615394592,
          1.63650381565094,
          0.048236504197120667,
          0.11554338783025742,
          0.7183719873428345,
          -1.826882243156433,
          0.591590166091919,
          0.03452267497777939,
          1.7871613502502441,
          -1.2078936100006104,
          1.2563157081604004,
          -2.841183662414551,
          -1.4951505661010742,
          -0.2513347864151001,
          -0.6013965010643005,
          -0.7407428622245789,
          -0.5586231350898743,
          -0.1328359842300415,
          -1.1991286277770996,
          1.2511308193206787,
          0.08272156119346619,
          -0.7294334173202515,
          -1.5317212343215942,
          -0.5899776220321655,
          -0.3471006155014038,
          0.5972020626068115,
          -0.20685356855392456,
          -0.06567694991827011,
          -0.8945663571357727,
          -0.009416359476745129,
          3.8738977909088135,
          -0.16207623481750488,
          -0.7980399131774902,
          2.2007029056549072,
          -0.006550779566168785,
          0.7225102186203003,
          0.142436683177948,
          -0.9441885352134705,
          -0.8506118655204773,
          1.1472913026809692,
          -1.034332275390625,
          0.35517868399620056,
          -0.6943255662918091,
          -0.04441472515463829,
          0.6845752596855164,
          1.6201857328414917,
          -2.0584537982940674,
          -1.4235152006149292,
          -0.5424262285232544,
          1.924108862876892,
          -0.5869333744049072,
          0.24448934197425842,
          0.5256433486938477,
          0.12881579995155334,
          0.2645556628704071,
          0.1949346363544464,
          0.3757856786251068,
          0.3884390592575073,
          -0.8085312843322754,
          0.14666083455085754,
          -0.22959460318088531,
          0.7791128158569336,
          -0.02535729669034481,
          -0.7436123490333557,
          -0.3730372190475464,
          -0.17872969806194305,
          0.8863838315010071,
          -1.0073344707489014,
          -0.7290380001068115,
          0.7222919464111328,
          0.20739275217056274
        ]
      },
      "inputHidden": {
        "rows": 20,
        "columns": 20,
        "weights": [
          -0.8725892901420593,
          0.9220969080924988,
          -0.7447315454483032,
          -0.6428877115249634,
          -2.6398062705993652,
          -1.268958330154419,
          -0.38241928815841675,
          0.3209055960178375,
          1.9793763160705566,
          0.1959177702665329,
          4.391285419464111,
          2.4670228958129883,
          2.170055389404297,
          1.4057151079177856,
          2.4658215045928955,
          0.027242636308073997,
          -3.44443941116333,
          -2.5362021923065186,
          0.4101509749889374,
          3.238752841949463,
          1.6449726819992065,
          -4.010871887207031,
          -2.293773889541626,
          -2.1881463527679443,
          -2.032804012298584,
          -1.5311609506607056,
          -4.264207363128662,
          0.9364839196205139,
          5.161078453063965,
          5.08597993850708,
          0.7121642827987671,
          1.0201886892318726,
          3.953275680541992,
          -1.1418266296386719,
          -0.5868462920188904,
          -3.560063362121582,
          2.2437148094177246,
          -1.5809047222137451,
          0.42354363203048706,
          -0.5497790575027466,
          -2.937251091003418,
          2.7396864891052246,
          -5.978103160858154,
          -0.9607148766517639,
          -1.8249202966690063,
          4.544011116027832,
          3.7519636154174805,
          0.618867039680481,
          -1.286842703819275,
          4.602546215057373,
          0.0798354297876358,
          2.0571887493133545,
          -0.174577534198761,
          2.0912370681762695,
          0.3842228651046753,
          0.10007914155721664,
          3.793266534805298,
          1.2177318334579468,
          -1.258325457572937,
          8.19625473022461,
          -2.010197639465332,
          -1.4382891654968262,
          0.8430524468421936,
          -3.5839812755584717,
          -1.3690614700317383,
          -0.7426502108573914,
          0.9729715585708618,
          -4.357890605926514,
          1.2205919027328491,
          -0.33784377574920654,
          -1.2137892246246338,
          -5.995092391967773,
          1.885223627090454,
          -1.931892991065979,
          -1.3246086835861206,
          5.263211727142334,
          -3.455556869506836,
          -1.8644862174987793,
          0.9482859373092651,
          -4.226495742797852,
          0.8435577750205994,
          0.4945041537284851,
          2.7030136585235596,
          1.4696213006973267,
          -1.562098503112793,
          0.9396775960922241,
          -0.4466201364994049,
          0.6830170750617981,
          -0.0013765651965513825,
          1.4582440853118896,
          -0.13229599595069885,
          0.3472554087638855,
          1.1204898357391357,
          1.6556767225265503,
          2.0316002368927,
          -0.11877743899822235,
          0.11693131923675537,
          -0.3836921453475952,
          1.1961015462875366,
          1.360888957977295,
          1.9948090314865112,
          1.8199365139007568,
          0.45282843708992004,
          1.6783276796340942,
          3.6841886043548584,
          -0.8435767292976379,
          -0.41023653745651245,
          -1.47235906124115,
          -2.7125449180603027,
          -3.2506539821624756,
          0.5163666605949402,
          -2.0956318378448486,
          -1.8396103382110596,
          2.706200122833252,
          4.63026762008667,
          1.2846460342407227,
          0.8204152584075928,
          7.201646327972412,
          4.22251558303833,
          -1.2611056566238403,
          1.3372246026992798,
          5.214865684509277,
          -0.29123732447624207,
          1.774105191230774,
          3.7818186283111572,
          -6.911590099334717,
          4.880081653594971,
          4.899674892425537,
          -1.6129810810089111,
          -6.630753993988037,
          -2.634099245071411,
          2.0125534534454346,
          -9.664594650268555,
          -0.6356053948402405,
          -1.141133427619934,
          3.3471498489379883,
          -2.218297243118286,
          0.24528086185455322,
          2.7509918212890625,
          -2.1501100063323975,
          2.4684293270111084,
          1.3942116498947144,
          -1.5742250680923462,
          -2.388395309448242,
          -1.45732843875885,
          -1.4016506671905518,
          6.475242614746094,
          2.6925251483917236,
          -7.326694488525391,
          -2.531209707260132,
          1.8572032451629639,
          2.1102616786956787,
          -3.6960842609405518,
          -1.552608609199524,
          4.503756046295166,
          0.9774304032325745,
          0.2815483808517456,
          1.1086740493774414,
          -0.2949848175048828,
          10.257109642028809,
          0.06887492537498474,
          0.8650339245796204,
          1.5015182495117188,
          3.288830518722534,
          0.9594160914421082,
          -2.9241676330566406,
          3.2510671615600586,
          -1.3388336896896362,
          -5.158555507659912,
          1.6133478879928589,
          -3.3237485885620117,
          -1.1968390941619873,
          -3.1171486377716064,
          -0.4326839745044708,
          0.5324805974960327,
          0.18903623521327972,
          1.1670520305633545,
          -1.2545006275177002,
          -0.04746788740158081,
          -3.1488001346588135,
          0.8249777555465698,
          1.603126883506775,
          -0.894280731678009,
          -3.2398135662078857,
          2.5399577617645264,
          -2.69338321685791,
          -0.5466131567955017,
          3.3194127082824707,
          -4.813845634460449,
          -5.161798477172852,
          3.1180269718170166,
          4.558141708374023,
          -4.008710861206055,
          0.20462605357170105,
          -3.3532814979553223,
          -1.0143928527832031,
          -0.047745611518621445,
          4.922974109649658,
          3.5272727012634277,
          -1.1594879627227783,
          0.2705932855606079,
          -2.6113710403442383,
          -2.6649107933044434,
          0.5145116448402405,
          0.12238848954439163,
          -2.095797061920166,
          -1.7935481071472168,
          0.22629022598266602,
          -0.6096642017364502,
          0.6157552003860474,
          -1.3245620727539062,
          2.89193058013916,
          -0.48662856221199036,
          -0.7576918601989746,
          -0.2698269486427307,
          3.0965418815612793,
          1.0985314846038818,
          -0.08718422055244446,
          0.8845543265342712,
          -5.25840425491333,
          -2.9548885822296143,
          2.165135145187378,
          -0.8151559233665466,
          -0.4257671535015106,
          -3.7527761459350586,
          1.023605227470398,
          1.8371782302856445,
          -5.269951343536377,
          3.988401174545288,
          1.6552013158798218,
          -2.573540687561035,
          -0.5360472798347473,
          1.9084100723266602,
          1.3759455680847168,
          -1.610984206199646,
          -0.1414690464735031,
          1.4682499170303345,
          -3.093862533569336,
          -5.1665472984313965,
          1.0742454528808594,
          0.9988216161727905,
          -3.1246585845947266,
          -2.3828577995300293,
          -2.4395813941955566,
          6.291338920593262,
          1.4184073209762573,
          4.537868976593018,
          -2.8231985569000244,
          -1.9587470293045044,
          -2.8952224254608154,
          0.7891086339950562,
          0.16564440727233887,
          -3.5589261054992676,
          0.3718608319759369,
          0.04643963649868965,
          1.2636231184005737,
          -0.08903282135725021,
          5.4227614402771,
          2.974721670150757,
          -1.9891316890716553,
          0.6291319131851196,
          -0.4786694049835205,
          -0.16863451898097992,
          0.31730958819389343,
          0.13704362511634827,
          -0.9367074966430664,
          1.062191128730774,
          0.806782603263855,
          -0.20367957651615143,
          1.8770016431808472,
          0.758013904094696,
          0.2599261701107025,
          1.0128748416900635,
          -0.4525761008262634,
          -0.7937678098678589,
          -2.0979928970336914,
          0.3487713932991028,
          0.9844487905502319,
          -0.12580770254135132,
          0.5516656041145325,
          1.179492473602295,
          -2.0600531101226807,
          -1.2955089807510376,
          4.0357489585876465,
          -3.709052085876465,
          0.4776705503463745,
          -0.5446950197219849,
          -1.210471749305725,
          -0.8564721345901489,
          3.6103663444519043,
          -6.334343433380127,
          -0.27242058515548706,
          -3.751195192337036,
          4.890130043029785,
          -0.8485241532325745,
          -1.9140042066574097,
          1.7349627017974854,
          -2.2476282119750977,
          0.28399068117141724,
          0.4014570116996765,
          6.045514106750488,
          2.4818966388702393,
          -2.023324728012085,
          1.7529593706130981,
          4.2297797203063965,
          -4.671038627624512,
          -1.6090646982192993,
          1.018737554550171,
          -2.9752516746520996,
          -1.319974422454834,
          -1.0340667963027954,
          -4.299206256866455,
          -1.530625343322754,
          1.1462379693984985,
          3.5422427654266357,
          4.087152004241943,
          -0.7598199844360352,
          -1.845705270767212,
          1.169899344444275,
          2.2936620712280273,
          -3.172938585281372,
          0.6650328636169434,
          -0.8828917145729065,
          0.246145561337471,
          -1.2979344129562378,
          -3.816481113433838,
          -2.366347551345825,
          -0.5372072458267212,
          1.7754026651382446,
          -0.7215226292610168,
          0.9159724712371826,
          0.24728626012802124,
          -1.5317561626434326,
          -0.030598096549510956,
          -0.832280695438385,
          3.257071018218994,
          -0.9244899153709412,
          -1.9342221021652222,
          -1.6593518257141113,
          3.436842203140259,
          -0.04214286431670189,
          2.3369319438934326,
          -3.4476733207702637,
          0.8651765584945679,
          -3.744520902633667,
          3.165362596511841,
          0.8185537457466125,
          -0.7345947027206421,
          0.15881085395812988,
          1.2398403882980347,
          -0.11582224071025848,
          -1.0234291553497314,
          1.2391332387924194,
          0.9570650458335876,
          1.171364665031433,
          -5.578690528869629,
          1.024679183959961,
          2.4910290241241455,
          -2.4878652095794678,
          2.4324042797088623,
          0.1391797810792923,
          3.6646862030029297,
          -2.844205141067505,
          0.578961968421936,
          -3.538269281387329,
          -1.0251928567886353,
          5.493095874786377,
          0.7629820704460144,
          -3.145514726638794,
          -2.269351005554199,
          -3.39936900138855,
          2.8702266216278076,
          -1.4610798358917236,
          0.4668179452419281,
          4.698453426361084,
          -7.06513786315918,
          1.008049488067627,
          1.9387110471725464,
          -2.7263965606689453,
          0.9291222095489502,
          0.3779631555080414,
          2.8411004543304443,
          0.5118222832679749,
          -1.5363051891326904,
          0.52822345495224,
          -1.6815159320831299,
          2.629403591156006,
          -1.8753567934036255,
          -1.906484842300415,
          -10.07815170288086,
          -3.179997205734253,
          1.381201148033142,
          -3.2903876304626465,
          -3.1187832355499268,
          -2.0062451362609863,
          3.578518867492676,
          -2.3368842601776123,
          -0.2219044715166092,
          -1.476526141166687,
          2.3665740489959717
        ]
      },
      "inputBias": {
        "rows": 20,
        "columns": 1,
        "weights": [
          -1.16584312915802,
          -0.5639462471008301,
          0.07869686186313629,
          -0.9267990589141846,
          -0.5598335862159729,
          -0.9745750427246094,
          -1.8804538249969482,
          -0.4230208396911621,
          -0.20050489902496338,
          0.1548963338136673,
          -0.2899705171585083,
          0.9242767095565796,
          -0.5601898431777954,
          -1.374528169631958,
          -2.209685802459717,
          -0.6700943112373352,
          -0.09429805725812912,
          -0.9645903706550598,
          -0.5740185976028442,
          -0.841208279132843
        ]
      },
      "forgetMatrix": {
        "rows": 20,
        "columns": 28,
        "weights": [
          -1.7285208702087402,
          0.24353495240211487,
          1.2905681133270264,
          -2.7345619201660156,
          -2.5632245540618896,
          -0.48433294892311096,
          -2.538092613220215,
          0.08323577046394348,
          0.09061409533023834,
          -2.487926483154297,
          0.9043973088264465,
          -1.0387121438980103,
          -0.20349130034446716,
          1.514743685722351,
          -0.7754273414611816,
          0.4752928614616394,
          -2.225759267807007,
          -0.7288817763328552,
          1.2050312757492065,
          -0.20573104918003082,
          -2.2750420570373535,
          -1.0497756004333496,
          -2.4634878635406494,
          -1.6264264583587646,
          -0.47877708077430725,
          -2.197056293487549,
          -1.420859694480896,
          0.5129233002662659,
          -1.0203137397766113,
          1.9061886072158813,
          -1.6154866218566895,
          -1.120545744895935,
          2.479250907897949,
          0.15584218502044678,
          -1.828052043914795,
          -0.41165879368782043,
          -0.6981658339500427,
          1.6155521869659424,
          -0.8452544212341309,
          -0.7413813471794128,
          -0.7293898463249207,
          -1.0754585266113281,
          -0.6796124577522278,
          2.802504301071167,
          -0.3128412663936615,
          -3.0066585540771484,
          2.2731845378875732,
          -1.6942672729492188,
          -1.6204090118408203,
          -0.35631632804870605,
          0.1373843252658844,
          0.7439982891082764,
          1.2953730821609497,
          1.9545621871948242,
          1.5317326784133911,
          -1.3903359174728394,
          -2.4854047298431396,
          -1.63253915309906,
          2.015862464904785,
          2.0011439323425293,
          -0.6916691064834595,
          -2.561905860900879,
          0.6971924901008606,
          0.9789912700653076,
          -0.4813913106918335,
          -0.02714022807776928,
          0.8370381593704224,
          0.06682735681533813,
          -1.0607908964157104,
          -0.9190027713775635,
          -2.0888421535491943,
          -1.5871559381484985,
          1.26400887966156,
          2.4607555866241455,
          -1.2322474718093872,
          1.5560088157653809,
          -0.2915162146091461,
          -1.0721522569656372,
          0.315610408782959,
          -0.47099965810775757,
          -3.317553997039795,
          -1.682608962059021,
          -0.764543890953064,
          1.154198408126831,
          1.7539219856262207,
          -0.7194696664810181,
          1.0352652072906494,
          -0.07867616415023804,
          -0.9305832982063293,
          1.1479052305221558,
          -2.164842128753662,
          2.3991787433624268,
          1.4430562257766724,
          1.2015831470489502,
          3.0162625312805176,
          4.9870076179504395,
          0.052293144166469574,
          -1.3413478136062622,
          -0.9716138243675232,
          -1.915065884590149,
          3.404719829559326,
          -0.13918006420135498,
          1.1238278150558472,
          -1.2906203269958496,
          -1.3675404787063599,
          -1.7682772874832153,
          0.29901859164237976,
          -0.44464048743247986,
          0.795200765132904,
          2.2981908321380615,
          -1.6832681894302368,
          2.6352548599243164,
          2.176330804824829,
          0.17401140928268433,
          -0.24601148068904877,
          -0.4209734797477722,
          -0.9118629097938538,
          -0.4763861894607544,
          2.3916852474212646,
          1.1758102178573608,
          1.8599241971969604,
          -0.989467978477478,
          4.813464641571045,
          2.8873424530029297,
          -2.8678014278411865,
          -1.8507193326950073,
          0.9009770154953003,
          -2.169330596923828,
          2.9407522678375244,
          0.7386329174041748,
          -0.9620591402053833,
          -0.6903630495071411,
          0.48675599694252014,
          -2.7010951042175293,
          -0.7271266579627991,
          1.1797840595245361,
          -2.0554027557373047,
          -0.018913602456450462,
          -1.5465861558914185,
          0.846150279045105,
          0.5130677223205566,
          1.3747154474258423,
          1.522056221961975,
          -3.052152395248413,
          0.8517975807189941,
          -0.2995772659778595,
          -1.5365633964538574,
          1.2497889995574951,
          -0.5841500163078308,
          2.12420654296875,
          0.9403970837593079,
          0.5603072047233582,
          -1.113505244255066,
          -1.395830512046814,
          -0.8268023729324341,
          0.743254542350769,
          0.5446075797080994,
          -2.853532075881958,
          1.8456037044525146,
          -1.422699213027954,
          -0.9665949940681458,
          -0.8175859451293945,
          2.7037296295166016,
          0.45924270153045654,
          -0.11090382188558578,
          1.0007344484329224,
          2.028010606765747,
          1.0284572839736938,
          -0.5888787508010864,
          -0.5204958319664001,
          0.7275071740150452,
          0.6626893877983093,
          -1.2007811069488525,
          0.5479645729064941,
          -1.4140042066574097,
          0.8585330247879028,
          0.9929987192153931,
          1.0533430576324463,
          -0.8801195621490479,
          -1.5883709192276,
          0.9122757911682129,
          -0.7562418580055237,
          -1.5130488872528076,
          1.8682085275650024,
          -0.2883738577365875,
          0.008400467224419117,
          1.6534143686294556,
          0.24282771348953247,
          -2.3645811080932617,
          -0.6585297584533691,
          -1.5020291805267334,
          -1.9547572135925293,
          0.9173053503036499,
          2.6071999073028564,
          -0.6003035306930542,
          2.056248426437378,
          2.9387989044189453,
          1.5661033391952515,
          2.3963611125946045,
          -1.200378656387329,
          0.6269391775131226,
          -0.6643104553222656,
          1.8176918029785156,
          3.3353590965270996,
          -0.9782432913780212,
          2.250347137451172,
          3.4707274436950684,
          2.101701498031616,
          -3.7571587562561035,
          -1.5147266387939453,
          -2.3285675048828125,
          -0.5289610028266907,
          0.0678279921412468,
          -0.5247445702552795,
          0.48676520586013794,
          -2.763996124267578,
          0.36603882908821106,
          -4.225666522979736,
          1.7798925638198853,
          1.882557988166809,
          0.04551010951399803,
          0.7857757806777954,
          2.7413291931152344,
          -0.16711212694644928,
          0.5898315906524658,
          0.048034120351076126,
          -0.37257859110832214,
          -0.9449688792228699,
          -0.3518911302089691,
          0.9804649949073792,
          -0.49138975143432617,
          -0.12514711916446686,
          0.4759605824947357,
          -1.566108226776123,
          -1.7335801124572754,
          -3.2933740615844727,
          1.4943740367889404,
          1.255584955215454,
          0.5544546246528625,
          1.731127381324768,
          -1.0877656936645508,
          -1.2482972145080566,
          1.385440468788147,
          -0.05144978687167168,
          -2.0291411876678467,
          0.9925037026405334,
          -1.3397297859191895,
          -0.7341509461402893,
          2.3196356296539307,
          0.5519247055053711,
          0.11937849968671799,
          -0.5972923636436462,
          0.2561187744140625,
          1.7314149141311646,
          -1.9562138319015503,
          -5.197817802429199,
          1.8148366212844849,
          0.14443238079547882,
          -0.8614211082458496,
          -0.20964807271957397,
          -0.8887933492660522,
          -2.1752431392669678,
          0.4583503305912018,
          -1.669959306716919,
          -0.8828314542770386,
          0.20424491167068481,
          1.9207358360290527,
          1.1593294143676758,
          -1.574628472328186,
          -1.0366877317428589,
          0.3814358413219452,
          -0.7720334529876709,
          -0.27077215909957886,
          0.0016042717033997178,
          1.2688732147216797,
          0.631248414516449,
          0.5407699942588806,
          1.9676576852798462,
          1.2161638736724854,
          -2.401717185974121,
          -0.37736210227012634,
          1.733507513999939,
          -2.647676706314087,
          1.2598543167114258,
          3.404428720474243,
          -1.28346848487854,
          -0.18643918633460999,
          -0.18497636914253235,
          -3.714395046234131,
          0.05333441123366356,
          -0.7617965340614319,
          -2.373528242111206,
          -0.8691005110740662,
          -1.3150349855422974,
          0.08211896568536758,
          -0.5911398530006409,
          3.9023711681365967,
          -0.05593353509902954,
          -0.12611961364746094,
          -1.9222767353057861,
          1.19719660282135,
          -0.5833531618118286,
          2.8996565341949463,
          2.48887300491333,
          -2.0357439517974854,
          0.3201121985912323,
          0.1286192238330841,
          0.10984470695257187,
          1.593634009361267,
          1.1531975269317627,
          -4.068864822387695,
          2.142651081085205,
          1.9588911533355713,
          -0.14303523302078247,
          0.5521160364151001,
          -0.4343242347240448,
          -2.150348424911499,
          -0.1555955410003662,
          -1.275368332862854,
          2.0503146648406982,
          -1.5713763236999512,
          -1.851762056350708,
          1.2354943752288818,
          -0.3027130961418152,
          1.932770013809204,
          0.1507396548986435,
          -1.5071344375610352,
          -4.025336742401123,
          -1.4057036638259888,
          0.5425518751144409,
          0.7282153964042664,
          2.0113940238952637,
          1.5006189346313477,
          2.5503227710723877,
          -1.6376686096191406,
          -1.7921258211135864,
          0.3378743827342987,
          -0.28105512261390686,
          0.10194437950849533,
          1.199526071548462,
          -2.5485143661499023,
          -2.8383305072784424,
          0.6315246820449829,
          -0.5918349027633667,
          -0.10498686879873276,
          -2.0876946449279785,
          -0.14241844415664673,
          -0.25175097584724426,
          -0.7851199507713318,
          -0.5058280229568481,
          0.8011292219161987,
          -1.8660002946853638,
          1.2795864343643188,
          3.3148224353790283,
          -2.535247802734375,
          3.688049077987671,
          0.726229727268219,
          0.12220153212547302,
          1.4781321287155151,
          -1.0490021705627441,
          -0.4884645938873291,
          -1.8567473888397217,
          0.07351285964250565,
          1.6359283924102783,
          -0.5860816836357117,
          0.1429377794265747,
          -0.15832866728305817,
          0.031144894659519196,
          4.329904079437256,
          -0.8708007335662842,
          -0.09164745360612869,
          0.02942134439945221,
          -2.0477936267852783,
          2.454399585723877,
          1.080739974975586,
          1.880086064338684,
          0.6390697956085205,
          -0.12993811070919037,
          1.0383338928222656,
          0.3624190092086792,
          1.370103120803833,
          0.265308678150177,
          0.7888028025627136,
          -1.5551966428756714,
          -1.5970566272735596,
          -0.5213449001312256,
          1.0464726686477661,
          2.582878351211548,
          0.6663537621498108,
          0.318355530500412,
          0.055588092654943466,
          -0.7750034332275391,
          0.23540838062763214,
          0.20113767683506012,
          1.3622081279754639,
          -0.909842848777771,
          -0.23060378432273865,
          -0.0740571841597557,
          4.192124843597412,
          -1.1289315223693848,
          0.2491287738084793,
          -1.5003489255905151,
          0.49745941162109375,
          1.8349268436431885,
          1.6144466400146484,
          3.1193559169769287,
          -0.4055289626121521,
          -0.2282477617263794,
          0.5235294699668884,
          -1.0731920003890991,
          1.276455283164978,
          1.099312663078308,
          -1.976726770401001,
          0.03550797328352928,
          -0.4898776412010193,
          -2.2430341243743896,
          -3.2523417472839355,
          -0.6154076457023621,
          0.42613136768341064,
          2.5713748931884766,
          -1.266494631767273,
          2.4130160808563232,
          2.2504336833953857,
          -3.093514919281006,
          0.8075072169303894,
          0.43377867341041565,
          -1.0754623413085938,
          1.205283522605896,
          -0.8251206874847412,
          0.40630248188972473,
          2.253404140472412,
          0.23270854353904724,
          -3.0584371089935303,
          -2.9875235557556152,
          -1.6416881084442139,
          0.9208832383155823,
          2.124203681945801,
          -1.687578797340393,
          1.33102548122406,
          -0.37450462579727173,
          -2.876577138900757,
          -1.6129112243652344,
          -4.059767723083496,
          0.3143784701824188,
          1.9716384410858154,
          -0.45087113976478577,
          -0.07687278836965561,
          1.6598823070526123,
          -1.1641706228256226,
          0.09529576450586319,
          0.7153627872467041,
          0.029290884733200073,
          -1.780783772468567,
          0.2998146414756775,
          1.8136777877807617,
          0.8047601580619812,
          1.285030484199524,
          0.755668044090271,
          -0.7219805121421814,
          -0.49829262495040894,
          2.6521317958831787,
          2.0818288326263428,
          -1.2034889459609985,
          -0.07621373236179352,
          0.9397854208946228,
          -2.9660048484802246,
          1.9630225896835327,
          4.041774272918701,
          0.421865850687027,
          0.2018302083015442,
          -1.1172242164611816,
          -4.102797508239746,
          0.4294613003730774,
          2.2256760597229004,
          -0.7338104248046875,
          0.5909642577171326,
          -1.8248040676116943,
          1.9722177982330322,
          2.4812309741973877,
          0.31986141204833984,
          -0.918467104434967,
          -1.5832940340042114,
          -1.421852946281433,
          1.3921027183532715,
          0.4847441017627716,
          1.6797800064086914,
          0.9713590145111084,
          -0.18604041635990143,
          -0.46781808137893677,
          0.9225078821182251,
          -1.6413832902908325,
          -3.7820322513580322,
          2.442378282546997,
          1.025505781173706,
          -1.9018758535385132,
          1.1759108304977417,
          2.5060970783233643,
          -0.9620344638824463,
          0.8343708515167236,
          -0.41297194361686707,
          -3.9248430728912354,
          1.293883204460144,
          0.8095457553863525,
          0.7212106585502625,
          3.062366247177124,
          -0.7017159461975098,
          0.10752736032009125,
          2.3389816284179688,
          0.4204443395137787,
          1.8044770956039429,
          2.993494987487793,
          -0.8783671855926514,
          -0.7957949638366699,
          -1.6910666227340698,
          -1.1997431516647339,
          -0.2962839901447296,
          -0.6416921615600586,
          -0.13979262113571167,
          -0.6883799433708191,
          -0.9413042068481445,
          -0.753581166267395,
          1.8190337419509888,
          -1.0240906476974487,
          -1.8596209287643433,
          1.6455553770065308,
          -0.12194407731294632,
          -0.5284036993980408,
          2.1609909534454346,
          1.861840009689331,
          0.7361131310462952,
          0.25809943675994873,
          -0.6902437210083008,
          0.1862688809633255,
          -1.1348086595535278,
          -0.17158396542072296,
          0.6610010266304016,
          0.63596111536026,
          0.4445953965187073,
          3.975761890411377,
          -0.42229366302490234,
          -1.5835782289505005,
          -1.6297684907913208,
          0.4655633568763733,
          -0.026184657588601112,
          0.11524729430675507,
          1.2960171699523926,
          -0.49295035004615784,
          0.6611238121986389,
          0.0761580690741539,
          2.5995278358459473,
          -0.3997129201889038,
          -0.44696664810180664,
          -4.709052562713623,
          0.610056459903717,
          -2.9752471446990967,
          0.020007073879241943,
          -0.1662874072790146,
          -0.3124426007270813,
          0.8848438262939453,
          0.41561540961265564
        ]
      },
      "forgetHidden": {
        "rows": 20,
        "columns": 20,
        "weights": [
          0.08555413037538528,
          -4.554966449737549,
          2.1981239318847656,
          -1.763426661491394,
          2.125911235809326,
          0.15751326084136963,
          -0.3795793056488037,
          -3.707427501678467,
          0.4424035847187042,
          0.4614065885543823,
          0.7196736335754395,
          -3.6314544677734375,
          -1.1516263484954834,
          -3.4904091358184814,
          -3.1280884742736816,
          2.237367630004883,
          -2.6577932834625244,
          2.097036600112915,
          -0.11819278448820114,
          0.20403259992599487,
          0.8211848139762878,
          -0.3592785596847534,
          -0.42858728766441345,
          5.366450309753418,
          -2.3018136024475098,
          3.3788163661956787,
          -2.5881569385528564,
          -0.28139474987983704,
          -1.0601662397384644,
          -0.7828895449638367,
          -2.3195407390594482,
          1.4374890327453613,
          2.9505815505981445,
          1.7715873718261719,
          4.903990745544434,
          -3.934419870376587,
          1.0692304372787476,
          2.388298273086548,
          -2.625434398651123,
          -2.9093384742736816,
          -0.6241753101348877,
          -0.714824378490448,
          -1.1533085107803345,
          1.6739259958267212,
          -0.31480908393859863,
          3.5386927127838135,
          1.3002758026123047,
          -1.4056700468063354,
          -0.7728963494300842,
          2.4614696502685547,
          0.3990829586982727,
          0.4384852647781372,
          -0.6221982836723328,
          -1.7684352397918701,
          -1.768738865852356,
          -1.0037895441055298,
          0.4339532256126404,
          1.2051957845687866,
          -0.7744519114494324,
          1.6228463649749756,
          -0.08070401102304459,
          0.2748546004295349,
          0.3872058689594269,
          2.719135284423828,
          -0.39031434059143066,
          -0.6561623215675354,
          -0.8850845694541931,
          1.650481939315796,
          -1.0423190593719482,
          0.292712539434433,
          0.406354695558548,
          1.3474081754684448,
          -0.24361038208007812,
          -0.470390260219574,
          -0.858775794506073,
          -0.18649663031101227,
          0.9906244277954102,
          -2.1536612510681152,
          0.14839163422584534,
          0.0992661565542221,
          0.08005167543888092,
          2.0706448554992676,
          -0.12553192675113678,
          -0.26477470993995667,
          -2.089380979537964,
          0.4427247941493988,
          -0.8309817910194397,
          1.1212692260742188,
          -1.2330490350723267,
          1.070132851600647,
          0.8686250448226929,
          0.5907953977584839,
          0.007500514388084412,
          0.4076773226261139,
          -0.6864606142044067,
          -0.904130756855011,
          1.348601222038269,
          0.21738053858280182,
          2.2706496715545654,
          0.8151205778121948,
          -2.6467654705047607,
          -0.06275597214698792,
          4.483681678771973,
          -1.6601334810256958,
          -0.4198555648326874,
          1.3913984298706055,
          -4.170862197875977,
          -4.074222087860107,
          2.578903913497925,
          0.7762851119041443,
          -0.6083968281745911,
          -0.5662887096405029,
          2.920060396194458,
          -0.9052042365074158,
          0.5159443616867065,
          0.13219811022281647,
          -0.6635363101959229,
          0.5190146565437317,
          -0.22976456582546234,
          -0.1722227782011032,
          -0.09284470230340958,
          2.303054094314575,
          -1.8632988929748535,
          -2.4977331161499023,
          -0.3483263850212097,
          -2.9284181594848633,
          -0.4279589056968689,
          0.7412756681442261,
          -0.18821115791797638,
          -3.439150333404541,
          -0.9988067746162415,
          -1.3603243827819824,
          0.030143335461616516,
          -1.4845002889633179,
          3.344163656234741,
          -0.3349660038948059,
          -1.988250970840454,
          0.21870599687099457,
          0.43113571405410767,
          -2.478278160095215,
          -2.4969873428344727,
          -0.1243143081665039,
          5.063260078430176,
          -1.6608905792236328,
          0.946827232837677,
          0.5940670967102051,
          -3.4229464530944824,
          -1.5007213354110718,
          -2.7513155937194824,
          -2.8243796825408936,
          3.2173891067504883,
          -1.6320074796676636,
          2.929687738418579,
          -3.8193564414978027,
          -2.1676974296569824,
          2.7836873531341553,
          -3.2084662914276123,
          1.3304470777511597,
          0.6451394557952881,
          -4.469143867492676,
          -3.6139209270477295,
          0.6122841238975525,
          -4.920849800109863,
          3.7639758586883545,
          -2.059997081756592,
          2.4061384201049805,
          2.6553804874420166,
          -2.7234175205230713,
          2.870464324951172,
          2.7276368141174316,
          -0.11649500578641891,
          -2.0850017070770264,
          1.835237741470337,
          3.6003904342651367,
          1.1565074920654297,
          -0.5852566957473755,
          1.6055421829223633,
          -0.715584933757782,
          -3.000905752182007,
          -1.2152249813079834,
          -2.891017436981201,
          -0.7298167943954468,
          1.8592238426208496,
          1.9575252532958984,
          -3.766024589538574,
          2.553549289703369,
          -2.7507236003875732,
          -2.4922585487365723,
          4.131480693817139,
          2.94844126701355,
          0.4959152340888977,
          1.1936856508255005,
          3.8521854877471924,
          4.044336795806885,
          0.2685905694961548,
          -4.408336162567139,
          4.877331733703613,
          -1.9716672897338867,
          -3.852396249771118,
          -2.503819704055786,
          -1.3421629667282104,
          2.0739240646362305,
          2.617316484451294,
          -3.079525947570801,
          -0.07821372896432877,
          -2.0246617794036865,
          -2.766226053237915,
          -0.8304412961006165,
          1.3163478374481201,
          -2.816070079803467,
          3.308330535888672,
          2.650162696838379,
          -3.522756814956665,
          0.6458883881568909,
          -0.507857620716095,
          1.458619236946106,
          -2.770890951156616,
          1.4112378358840942,
          0.6487105488777161,
          -2.1181135177612305,
          2.4304397106170654,
          2.655500888824463,
          -4.656261920928955,
          2.461601734161377,
          -2.7823939323425293,
          -2.0313448905944824,
          2.8069911003112793,
          0.8946766257286072,
          -1.8891716003417969,
          -0.39645370841026306,
          -4.603115081787109,
          1.3297524452209473,
          -1.5907137393951416,
          0.3342418074607849,
          0.9276731014251709,
          -1.6083928346633911,
          1.6908596754074097,
          3.177556037902832,
          0.6149911284446716,
          3.7571475505828857,
          -1.4068408012390137,
          3.95412015914917,
          0.19009853899478912,
          0.6905553340911865,
          -4.036546230316162,
          1.5683990716934204,
          -0.8157661557197571,
          0.11514099687337875,
          1.1031054258346558,
          2.7208518981933594,
          2.585986852645874,
          2.4737136363983154,
          -0.9877405762672424,
          -3.2464723587036133,
          -1.936210036277771,
          -0.07772672176361084,
          -0.29269760847091675,
          4.916126728057861,
          -2.1384119987487793,
          4.7534942626953125,
          2.570789098739624,
          1.1461451053619385,
          0.5989065170288086,
          -2.03377103805542,
          2.286465883255005,
          -1.2877731323242188,
          -0.9559302926063538,
          -0.34928184747695923,
          -4.580289840698242,
          -2.069404125213623,
          1.1957026720046997,
          0.7112457156181335,
          -0.09816022217273712,
          2.6884329319000244,
          -0.24311308562755585,
          -0.03301677107810974,
          0.0507514588534832,
          3.3483636379241943,
          3.285094738006592,
          -0.39445793628692627,
          5.21422815322876,
          -0.3855993151664734,
          1.6107556819915771,
          0.13637521862983704,
          0.9967178702354431,
          1.7368351221084595,
          -0.6978376507759094,
          0.02230740711092949,
          0.2423354536294937,
          3.1903014183044434,
          4.523998260498047,
          -1.741429090499878,
          3.318795919418335,
          -0.39642438292503357,
          2.6293838024139404,
          -1.6187413930892944,
          -0.9651259183883667,
          -0.4925612509250641,
          1.3871291875839233,
          1.183192491531372,
          3.3080077171325684,
          -0.10117057710886002,
          -0.3411204516887665,
          -2.690272569656372,
          0.21598730981349945,
          -1.9347293376922607,
          -0.041349973529577255,
          2.991891860961914,
          -3.395024299621582,
          -2.2164320945739746,
          0.767975926399231,
          -0.3290545642375946,
          -1.2077486515045166,
          -1.0523345470428467,
          -0.044636230915784836,
          -0.4315003454685211,
          -1.0330119132995605,
          0.6516134738922119,
          1.640175461769104,
          0.9543007016181946,
          0.2719973623752594,
          0.35592490434646606,
          -2.0659000873565674,
          -0.5913605690002441,
          -0.6658298969268799,
          0.3414963185787201,
          1.37518310546875,
          -0.11621921509504318,
          -0.6293961405754089,
          2.6240904331207275,
          -0.48150384426116943,
          3.6273250579833984,
          -0.7984692454338074,
          -0.5869657397270203,
          -2.766460418701172,
          -3.274071455001831,
          4.490983963012695,
          0.49889567494392395,
          2.7383902072906494,
          2.7621994018554688,
          -0.9779627323150635,
          1.2703009843826294,
          -0.3088960647583008,
          2.8476903438568115,
          -4.2658209800720215,
          -2.2880539894104004,
          -0.7371586561203003,
          -2.8028528690338135,
          1.3924719095230103,
          1.6745526790618896,
          -3.869154691696167,
          3.219881296157837,
          -0.2981175482273102,
          2.1803085803985596,
          1.3901535272598267,
          -2.066362142562866,
          1.5603530406951904,
          -3.9138145446777344,
          -4.220549583435059,
          3.729537010192871,
          -0.23213312029838562,
          1.18394935131073,
          0.28759443759918213,
          -2.613455057144165,
          0.49996212124824524,
          2.2465665340423584,
          1.0540165901184082,
          -1.0185906887054443,
          1.221264362335205,
          -0.505976140499115,
          2.7624571323394775,
          -2.29242205619812,
          4.0553202629089355,
          -6.498570919036865,
          -3.186587333679199,
          3.19669508934021,
          -1.1028358936309814,
          -1.0137752294540405,
          -4.661492824554443,
          -0.7642422914505005,
          -0.9473122358322144,
          -0.19474142789840698,
          0.9813095927238464,
          3.590315103530884,
          -0.6361226439476013,
          1.8604133129119873,
          1.2986547946929932,
          2.185537099838257,
          -0.5080549120903015,
          -1.6447399854660034,
          0.7622917890548706,
          -1.4111584424972534,
          -1.7251002788543701,
          0.869989812374115,
          1.5544438362121582,
          -0.5420342087745667,
          -1.788392186164856,
          1.0362555980682373,
          1.0752129554748535,
          2.4546713829040527
        ]
      },
      "forgetBias": {
        "rows": 20,
        "columns": 1,
        "weights": [
          0,
          0,
          0,
          0,
          0,
          0,
          0,
          0,
          0,
          0,
          0,
          0,
          0,
          0,
          0,
          0,
          0,
          0,
          0,
          0
        ]
      },
      "outputMatrix": {
        "rows": 20,
        "columns": 28,
        "weights": [
          0.12230806052684784,
          0.8289820551872253,
          0.023723987862467766,
          -3.295220375061035,
          0.8727145791053772,
          0.9094445705413818,
          4.069452285766602,
          0.2537539601325989,
          0.2338000237941742,
          1.3341493606567383,
          -0.09418479353189468,
          -1.6876766681671143,
          0.5555930137634277,
          0.9621089696884155,
          -0.05553416535258293,
          0.28951361775398254,
          -1.0460216999053955,
          -4.825801849365234,
          3.5025761127471924,
          2.80790638923645,
          -2.4461464881896973,
          -2.0547423362731934,
          1.085477352142334,
          -0.7243000864982605,
          -2.565453290939331,
          1.7421098947525024,
          0.9499809145927429,
          0.9062597155570984,
          0.4753226339817047,
          0.7130292654037476,
          -0.5496519207954407,
          -1.9092893600463867,
          0.18814653158187866,
          1.7762378454208374,
          -0.4731127917766571,
          -0.40692397952079773,
          -0.379585862159729,
          1.2192072868347168,
          0.28800415992736816,
          2.2759475708007812,
          -0.10722466558218002,
          0.8881480693817139,
          -0.6746689081192017,
          0.71210116147995,
          -1.3228331804275513,
          -0.3532406985759735,
          0.8720778822898865,
          -1.8991554975509644,
          -0.8678987622261047,
          -0.8684585690498352,
          1.6199910640716553,
          3.3563740253448486,
          -1.1765438318252563,
          -1.4455029964447021,
          1.8556915521621704,
          -1.4837881326675415,
          0.6404550671577454,
          -1.2603808641433716,
          5.734580993652344,
          0.40456676483154297,
          -5.357537269592285,
          1.329667568206787,
          -0.5000134706497192,
          2.6724624633789062,
          3.3331198692321777,
          1.788081407546997,
          -0.28822240233421326,
          1.5843327045440674,
          -0.23480433225631714,
          -0.3410148024559021,
          -2.726954221725464,
          -0.29218247532844543,
          0.30201005935668945,
          -0.3389955461025238,
          0.026235464960336685,
          1.1349434852600098,
          -2.3770751953125,
          -2.959444761276245,
          -0.6534227132797241,
          -2.7110443115234375,
          1.5448306798934937,
          0.9884374141693115,
          -1.4760586023330688,
          4.338356018066406,
          -1.063409686088562,
          -0.33308419585227966,
          -0.1203615739941597,
          -0.7338202595710754,
          0.6497455835342407,
          0.21801438927650452,
          -0.4767859876155853,
          -1.6940159797668457,
          -1.0019277334213257,
          -0.2786044478416443,
          -2.147080183029175,
          -3.6064562797546387,
          0.694640040397644,
          1.0401017665863037,
          -1.6191890239715576,
          3.7601442337036133,
          -1.729088306427002,
          -0.688845694065094,
          0.717199981212616,
          -1.249463677406311,
          -2.257843017578125,
          2.152691602706909,
          -0.08105438947677612,
          0.9971035718917847,
          -1.961639404296875,
          -0.4715586006641388,
          -1.853115439414978,
          -1.8491896390914917,
          1.0104835033416748,
          -0.17437052726745605,
          -1.6723453998565674,
          0.2162676751613617,
          0.21008506417274475,
          0.09667973220348358,
          -0.6977262496948242,
          -0.5549508333206177,
          0.41656291484832764,
          0.20638415217399597,
          -2.5425541400909424,
          -1.0325371026992798,
          0.5757818222045898,
          -0.1417415291070938,
          0.789487361907959,
          0.12997324764728546,
          -0.8307081460952759,
          0.8679652810096741,
          -0.11229042708873749,
          -1.6677075624465942,
          2.456165075302124,
          2.7277679443359375,
          0.4298207461833954,
          1.1458768844604492,
          1.5554429292678833,
          -1.0449635982513428,
          -0.2488778829574585,
          -3.552157402038574,
          1.9524660110473633,
          0.11087361723184586,
          0.36037203669548035,
          1.6507424116134644,
          -1.0372122526168823,
          0.07375512272119522,
          1.7088028192520142,
          -0.8982498049736023,
          -0.06573672592639923,
          -0.19308698177337646,
          0.05646577104926109,
          1.4968181848526,
          -0.016504639759659767,
          -0.8381233811378479,
          -0.4073234498500824,
          -2.546363353729248,
          0.9872190952301025,
          -0.032702576369047165,
          -1.9097228050231934,
          -1.562601923942566,
          0.1396057903766632,
          0.6141960620880127,
          1.9168444871902466,
          0.9798763990402222,
          -4.233604431152344,
          0.9549663066864014,
          -0.9578794240951538,
          -0.24044083058834076,
          2.3528761863708496,
          -1.1597537994384766,
          1.9450567960739136,
          -0.3594164550304413,
          -2.279392957687378,
          0.30808475613594055,
          -0.5406001806259155,
          4.200713157653809,
          2.660684585571289,
          1.582698106765747,
          2.4830188751220703,
          4.230343818664551,
          -1.3351119756698608,
          -1.995640754699707,
          0.7113149762153625,
          -0.8575071692466736,
          1.891359806060791,
          0.6212248802185059,
          0.3958244323730469,
          0.8802059888839722,
          0.10739754885435104,
          -1.9459617137908936,
          0.545508623123169,
          -1.558158278465271,
          1.0612372159957886,
          1.325768232345581,
          -1.1338311433792114,
          2.0297179222106934,
          0.11517933011054993,
          0.029688021168112755,
          -2.8465633392333984,
          0.49758875370025635,
          2.87947940826416,
          1.5500009059906006,
          0.44199803471565247,
          -0.15288890898227692,
          -2.3740925788879395,
          1.3667707443237305,
          -0.8691080808639526,
          1.1291483640670776,
          1.3407255411148071,
          -0.27447155117988586,
          1.285230278968811,
          1.1232742071151733,
          0.3242632746696472,
          -0.9717644453048706,
          0.21784479916095734,
          -1.0593314170837402,
          -1.4269757270812988,
          1.912893295288086,
          0.37768930196762085,
          0.8914018869400024,
          -1.1900007724761963,
          0.5002883076667786,
          0.9682013392448425,
          -1.86312735080719,
          -2.4460785388946533,
          -0.6505361795425415,
          -0.8957577347755432,
          -2.9968669414520264,
          1.258615255355835,
          3.2996883392333984,
          -0.5785439014434814,
          -1.1049113273620605,
          -1.760446310043335,
          -2.2568342685699463,
          1.2137151956558228,
          -2.4582860469818115,
          -1.2616311311721802,
          -1.7224520444869995,
          -0.339773952960968,
          2.9195146560668945,
          -0.2743847966194153,
          -1.2722338438034058,
          4.0860724449157715,
          -1.898584008216858,
          -3.7608225345611572,
          -0.29407423734664917,
          -2.475637197494507,
          1.6793442964553833,
          2.186595916748047,
          0.9153563380241394,
          0.9844579696655273,
          -0.6203210353851318,
          0.4968254566192627,
          1.0138514041900635,
          -2.1123058795928955,
          0.5788945555686951,
          3.049475908279419,
          0.15687276422977448,
          0.7831634283065796,
          -0.5535397529602051,
          -2.9371323585510254,
          -1.9929521083831787,
          0.4646267592906952,
          -0.5125237107276917,
          -2.540745258331299,
          -0.5148199200630188,
          1.6421611309051514,
          0.8669490218162537,
          -0.48512253165245056,
          0.10779429972171783,
          -0.1243208721280098,
          -0.40655767917633057,
          -0.22984229028224945,
          -0.27269265055656433,
          0.6379556655883789,
          2.2778677940368652,
          -1.3164613246917725,
          2.5662801265716553,
          0.8673463463783264,
          -0.7461021542549133,
          -0.49253150820732117,
          -1.2666598558425903,
          -2.0561821460723877,
          -1.6404341459274292,
          1.0854721069335938,
          2.4108617305755615,
          -1.342794418334961,
          1.7266871929168701,
          0.37677785754203796,
          1.5091952085494995,
          0.8202987909317017,
          4.045566082000732,
          -1.3714985847473145,
          -2.1272013187408447,
          3.16483211517334,
          0.5680258274078369,
          1.0762301683425903,
          -1.866969108581543,
          1.396265983581543,
          0.45812100172042847,
          -6.904567718505859,
          -0.00817815214395523,
          -0.8335424661636353,
          0.457057386636734,
          -0.7171796560287476,
          1.2231703996658325,
          -0.3104923963546753,
          1.074088215827942,
          0.7810884118080139,
          -0.42347168922424316,
          0.5645169615745544,
          -0.41042742133140564,
          -0.558551549911499,
          0.6570165157318115,
          -1.9030189514160156,
          0.5053722262382507,
          -0.08512010425329208,
          -0.09157191216945648,
          1.4954522848129272,
          0.6025419235229492,
          -1.571387767791748,
          -0.6809549927711487,
          -0.5675210356712341,
          -2.269674777984619,
          1.3439640998840332,
          -0.3386005163192749,
          -0.5187059640884399,
          1.1402487754821777,
          1.5137473344802856,
          -0.788605809211731,
          -0.005351605359464884,
          -0.840779721736908,
          1.1080989837646484,
          -0.16263605654239655,
          -0.5349137783050537,
          0.8392382264137268,
          -0.3183620870113373,
          2.48840594291687,
          1.1934254169464111,
          -0.35826271772384644,
          1.3969109058380127,
          1.271249771118164,
          -1.0399497747421265,
          0.6035033464431763,
          -0.8628813028335571,
          0.3419799208641052,
          0.4460206627845764,
          -0.476663738489151,
          -2.893345832824707,
          -1.2989919185638428,
          -2.6109731197357178,
          -1.0417097806930542,
          0.4092922508716583,
          -0.8432443141937256,
          -0.317891389131546,
          -1.5507878065109253,
          0.25910043716430664,
          -3.5475475788116455,
          -1.7585036754608154,
          1.7461200952529907,
          -0.07664931565523148,
          0.4524773955345154,
          1.127366304397583,
          -1.563132405281067,
          1.6627579927444458,
          -2.7732832431793213,
          -3.4004225730895996,
          1.7591509819030762,
          -1.8520245552062988,
          0.9376612901687622,
          2.400601863861084,
          -1.9538862705230713,
          -0.3622095584869385,
          -1.962593674659729,
          -3.731304883956909,
          0.8982393741607666,
          2.4886765480041504,
          1.231928825378418,
          0.7855189442634583,
          0.04356575012207031,
          -0.9793816208839417,
          2.7907283306121826,
          -1.9471497535705566,
          0.31249624490737915,
          -1.1674336194992065,
          3.2228682041168213,
          -1.1458903551101685,
          -1.4951835870742798,
          -0.2701069712638855,
          -1.313296914100647,
          -3.4010064601898193,
          -2.311020612716675,
          0.09463027864694595,
          0.17348185181617737,
          0.16905322670936584,
          2.482974052429199,
          0.1297418177127838,
          -2.3610424995422363,
          1.3519855737686157,
          0.44740357995033264,
          0.14870427548885345,
          0.5119397640228271,
          -0.7963834404945374,
          -0.19088707864284515,
          -0.28087353706359863,
          0.44530436396598816,
          -0.41757428646087646,
          -1.61550772190094,
          -0.11555162072181702,
          0.42608433961868286,
          -1.7832227945327759,
          0.7627975344657898,
          1.4537467956542969,
          -0.44594162702560425,
          -0.856870710849762,
          -0.22633196413516998,
          -1.0302387475967407,
          -0.7243728637695312,
          -0.3462856411933899,
          0.7289775609970093,
          -2.5101797580718994,
          -2.381946086883545,
          -0.8217034339904785,
          1.3529144525527954,
          -0.49264007806777954,
          -2.9397048950195312,
          0.6423443555831909,
          0.12925490736961365,
          1.126335859298706,
          -0.14660438895225525,
          -0.8553251028060913,
          0.185735821723938,
          1.7779061794281006,
          1.0362483263015747,
          3.5678114891052246,
          0.9245200753211975,
          0.005268064793199301,
          1.2240641117095947,
          -0.5977911353111267,
          2.0345826148986816,
          0.25642096996307373,
          1.615448236465454,
          0.8703907132148743,
          -0.9918131828308105,
          -0.699521005153656,
          -2.2084269523620605,
          -1.186856985092163,
          -0.25630876421928406,
          -1.4149609804153442,
          -2.363225221633911,
          -0.48648855090141296,
